elements: [O, Ti]
E0: [0, 0]
deltaSplineBins: 0.001
embeddings:
  0: {ndensity: 2, FS_parameters: [1, 1, 1, 0.5], npoti: FinnisSinclairShiftedScaled, rho_core_cutoff: 5, drho_core_cutoff: 5}
  1: {ndensity: 2, FS_parameters: [1, 1, 1, 0.5], npoti: FinnisSinclairShiftedScaled, rho_core_cutoff: 5, drho_core_cutoff: 5}
bonds:
  [0, 0]: {nradmax: 6, lmax: 3, nradbasemax: 14, radbasename: SBessel, radparameters: [5.25], radcoefficients: [[[-0.21941096785549355, 0.2798456201175355, 0.23104210110406198, -0.45021861753032572, 0.10659014886954174, -0.54811394982315298, -0.083144965299889434, -0.17043437795609429, -0.28169604091118949, 0.2954934283773325, -0.36493113628988549, 0.14060381663517385, -0.13507720419741173, -0.067986072412353576], [1.6552658567844394, 0.34432168631345406, 0.091387680432562041, 0.43384173080916721, 0.055178862649955099, -0.016994015949610992, 0.12910459447011149, 0.0003730618431652163, 0.33993939758106573, -0.40848142033622376, 0.15570178362448234, -0.23003554044866376, 0.1294070347416697, -0.041377500174848314], [0.15226624239126302, -0.12588927957860846, 0.15792613403467196, -0.26482740100848029, 0.32407189372150669, 0.41115020756714332, 0.02389637080356552, 0.1587174789596757, 0.081410066553894073, -0.086025989735306813, -0.066841580738612696, 0.03066476326962277, 0.1079626792125814, -0.17047350568804723], [0.11679278529106624, 0.25420194634295973, -0.14873060810134775, -0.24698173878303203, 0.46973382104537253, -0.065386188253224467, 0.30158218510127333, -0.27623023320547058, -0.16038537118092924, 0.38181914148913981, -0.43122852319626259, 0.35283585765105141, -0.30449351223977811, 0.066948134591279657]], [[-0.56413779678848952, 0.031679497255827464, -0.18523893324736457, -0.38092053816215921, 0.071117449066321586, 0.0074429306613638503, -0.37831063710565155, 0.14050419328100339, -0.54144189051529679, 0.68818787692040095, -0.85154589663700464, 0.65773259678780993, -0.30389389813833106, 0.001818169754450991], [-0.93728499720940861, 0.75149337162425522, -0.66917408802657419, -0.42300769201687527, -0.15564410157503916, -0.38820244826655204, 0.063785083862198416, -0.59828586524826655, 0.58305346725450957, -0.51593595484800292, 0.060535217328794612, -0.097990976554218484, -0.066699458786237925, -0.055899111780104281], [-0.02174454735506565, -0.18000996043501272, -0.11646433608309363, 0.081347579604740539, -0.016717977026360163, 0.5842495279046811, -0.31978180599219086, 0.27997278074362575, -0.24160700590529632, 0.024613567656506793, -0.040965235753277013, 0.042828839939389657, 0.03365313690008527, -0.071386520297807857], [0.16867796718385672, -0.19787522846583241, -0.34466132941922312, 0.32425406400633777, -0.76030932025803166, 0.22627834385012979, 0.0031470906449874935, -0.24478227197633445, 0.44727093187412637, -0.50410554294004828, 0.53099121287791495, -0.59283091292151779, 0.28363980858177801, -0.2071925645341558]], [[0.34794912861262023, -0.57754843710785875, 0.60974289295014084, -0.27595936617464478, -0.15723505165171109, 0.034560449769047222, -0.27244648946634265, 0.080747254662186352, -0.16365655394850051, 0.065513542297946523, -0.035825597567489986, -0.098914938960566717, 0.042049297544149433, -0.082667748912435807], [0.32995348630024279, -1.0738476001148132, 0.66977133900326169, 1.0210987684669248, 0.12656692350046081, 0.13040273008752218, 0.41109612591918859, 0.2288382746268034, -0.016299326182180281, 0.1036524648544033, 0.29097066717750253, 0.060043887129156481, -0.045911553146749773, 0.17864372392160929], [0.28175672298162735, -0.82227158350028484, 0.44937214608756215, -0.17542891687732423, 0.030710563304200647, -0.15329107829838187, -0.41112028342712503, 0.49088423354275884, -0.74552395865930565, 0.4937449344968472, -0.24214222421764875, 0.30720748292429256, -0.18728113748233788, 0.21810523796184969], [0.072614213878545081, 0.73728363709083844, 1.1552516171924538, -0.42370575209745415, -0.48323669896393995, -1.366955059001024, -0.2929596253699292, 0.78222509978735943, -0.49715952368950034, -0.17367494790941349, 0.40131632519422694, 0.34711779193897507, -1.084303368802886, -0.024344576132986597]], [[-0.17806266734336262, 0.31969412829254529, 0.18850271646585215, 0.28164192315840519, -0.21548816021305869, 0.46963423820678163, -0.081014946839351551, 0.29586081108114953, -0.11856349816846461, -0.81798137683581829, 0.81544417109838341, -0.67458379573168026, 0.33199416715107205, -0.15478182045396133], [0.10702088721530478, -0.41698934213554417, -0.44097234536892682, 1.6467555220230465, 0.49550379584403059, 0.079973316417281282, 1.0990412647598928, 0.34501594607471425, -0.38890750814976227, 0.43198436087252673, 0.30175277879392709, 0.35625391814274465, -0.27135087839431765, 0.37452065220393704], [0.096141686393473785, -0.5959609410782547, -0.24331691897732496, 0.66911688979671968, -0.48801789903597825, 1.0149278184825861, -0.015406798023664254, -0.48453598209994497, 0.46218498788457246, -1.1709197342479114, 1.0292914411336549, -0.75388593771875978, 0.70068020795217689, -0.46476049441921496], [0.0070720235204581551, -0.82287736466908412, -1.2865488543702068, 0.4394978790211338, 0.90844386895376006, 0.85191251379120247, -0.42307255610842853, 0.18635627718126918, -0.22365022161798651, -0.8066050101129657, 0.61437944596217198, -0.62628609488360376, 0.71657729534809855, -0.39396419336782679]], [[0.3297914377802022, -0.12110408131517553, -0.06720914225030214, 0.36097072480117781, 1.4556906277514272, 0.94749311436184536, 0.94762894619134941, 0.76219127289601551, 0.46751318430765876, -0.23976768500418144, 0.70600608124709474, -0.017763516466829384, 0.39874718588025232, 0.38426507812790595], [-0.73571202145335701, -0.465569460849937, -0.67153273980662642, 0.20519700324535128, 0.97125111974497091, -0.32280325507462049, 1.4792015351555858, -0.19206522135489473, -0.72295305590357095, 0.62935284762443378, 0.32201569756267057, 0.25364589042353536, 0.032151516084388668, 0.14838587402894324], [-0.052268902280446138, -1.3183932423081801, -1.0215734076214389, 0.084634181682622309, 1.0911140930016336, 0.44160233338672783, 0.60096466827243766, 0.56443395505410865, 0.21699713905914295, -0.32827459362520856, 0.66921354498401819, 0.47557547690563767, -0.29854654094839617, 0.55673994109382918], [-1.000715429813686, -0.65289303446302793, -0.10503587749419332, -0.80970037447248822, -0.028258615041350518, 0.28738935672650978, 1.0941309976940941, 0.3715620556049814, 0.45573356339770721, 0.32394229028404259, -1.2909975927739707, -0.71468882693192726, 0.89388908267650802, 0.60616282757476658]], [[0.14995235796430897, 0.49947436984664645, -0.63569834385214397, 0.47182097539987661, 1.7036738190152283, 0.50838654188458798, 0.60869689934023896, 1.5038070382748074, -0.46325292263437756, 0.26357711259270361, 0.051788596477692364, 0.56984924106063894, -0.22663141689942437, 0.54508151763748491], [0.14031718960266215, 0.47261146366419837, 0.62914142229532888, 0.67027888458798746, 0.15953226108879523, 1.3818685203050327, 0.81816017680303954, -0.83626889273882765, -0.70751022366805882, 1.0031907305762691, 0.12295250085672293, -0.47617173390249562, 1.0772703241497505, -0.36565841296965323], [-0.1520399321390544, 0.54982300135095863, 0.71529899364675431, 0.8919923284306287, 1.2002507401060616, 0.96313350272557408, -0.073740542164970987, 0.52111327707694532, -1.2558223656605516, -1.1776178960877037, 0.5111341374254289, 0.0667286535981024, -0.034299446756462265, 0.98244843352647271], [0.80817019249761468, 0.35298034491952601, 0.1688967163875903, 0.41253806499262341, -0.34448175581952023, -0.011535900759004344, -0.93035887714294363, -0.21644343858118548, 0.099947604805016271, -0.32862580288558924, -0.4170164937998993, -0.71751979850485159, -0.2881925986301922, 1.1512286519007295]]], prehc: 10000, lambdahc: 1, rcut: 7, dcut: 0.01, rcut_in: 1.2754761541823396, dcut_in: 0.10000000000000001, inner_cutoff_type: distance}
  [0, 1]: {nradmax: 6, lmax: 3, nradbasemax: 11, radbasename: SBessel, radparameters: [5.25], radcoefficients: [[[0.53385053050591957, -0.50163302123228082, 0.3788629798363925, -0.22119952697100728, 0.11921436891485176, -0.051258425762614898, -0.022265069644049319, 0.015694150541216822, 0.0050244489514866984, -0.022705780289508766, 0.013423645208087075], [0.04157556591431992, 0.73539440202946693, -1.7787426127209089, 2.0193759383340404, -1.6854754909675898, 1.0532761864448867, -0.86001888586357345, 0.72781797705123408, -0.39147086274727305, 0.2205739600775998, -0.070648378631174832], [0.38386725990060699, 0.40014150636259682, -0.94567256273847689, 1.1443797140682059, -0.90913431433712732, 0.64569292825178137, -0.47173801111912211, 0.39550368678623005, -0.22115061112559303, 0.15139991375918574, -0.028682398440313246], [-0.41383669573634474, 0.21185403684002649, -0.50034712729983732, 0.31312275480406493, -0.32848619577219673, 0.065661690250375812, -0.1510144996465784, 0.10445650907237335, -0.064095248988559561, 0.065681543903160028, -0.032693820274219201]], [[0.63835743400827083, 0.72883433100669526, -1.2297682759193447, 1.7912485388824471, -1.3355454348575608, 0.8674927062635347, -0.58556921491620251, 0.20491748295995726, 0.012805324393869024, -0.15906137528694239, 0.099515591927511943], [-1.4622510234242994, 1.5934935401024748, -1.3972343693243245, 1.1763437611236771, -0.75021095914238844, 0.47385595175719492, -0.38546847553426355, 0.32401999670581716, -0.14148040550957086, 0.061334746481043166, 0.001611568720335532], [0.063358408534583521, 1.0847700255569892, -1.1503519168768093, 0.954031455335275, -0.67846547232213472, 0.78398504761197574, -0.83819424722679503, 0.66937507952976094, -0.42552892543573295, 0.31753887122876262, -0.12536069569933977], [-0.86707025200624033, 0.5808790439591166, -0.75651445629206215, 0.34291809083748392, -0.16818325071712911, -0.16272774935150602, -0.023486080754136669, 0.0058640455477791545, -0.032601762580045442, 0.057463009564349465, -0.038257384483956929]], [[0.52858460499162496, -0.99030919216302005, 0.87652342103210867, -0.71547329565824191, 0.4747608153215449, -0.31954630271117984, 0.26453754680416086, -0.13048689570327232, 0.023953771617884142, 0.029417050054048422, -0.013080526049798792], [-0.28310885574144717, -0.70289238923984565, 1.5858520679654611, -0.59735500408184217, 0.056123444502083106, -0.049055953258648866, 0.35860117049920331, 0.11510255742842225, -0.26460348755403196, 0.065664208906086707, 0.039157220106801852], [0.65075090603587948, -0.16888075915130321, 0.51952431854155057, -0.76808735662281236, 0.40490355602515332, 0.20466516178203939, -0.65055212898452119, 0.60364354800386077, -0.48493807771385911, 0.32992927709874892, -0.15976722077024424], [2.0359484056571731, 0.46246419807995542, 1.0490303163876111, -1.299139104577844, 0.40888004750378143, 0.042956237181192021, 0.21894456372118037, 0.059211481376255926, -0.41946851453120632, 0.18157410838525764, 0.03033485468472738]], [[-0.41549461750790095, -0.18631122098493463, 0.37514044774016525, -0.17933818629101306, -0.14489973377829563, 0.23248948591076252, -0.62293788909209047, 0.86457551858844017, -0.68879291657051989, 0.39317702061020221, -0.2102546413005765], [2.5302048075536057, -1.8484738626606048, -0.30588873808809791, 1.510781538807106, -1.5834126363500858, 0.68556710667845255, -0.77407349474890941, 0.86044532988293088, -0.54079358167367486, 0.35790058705623051, -0.091158329722875839], [-2.0373825560410346, 1.5805357529758068, -0.03507276496620438, -0.90231717196243644, 0.46946260517485505, 0.065410091767367007, -0.25814942660201462, -0.0036147396437409981, -0.11770828250444769, 0.13973910823553659, -0.1385767619743728], [0, 0, 0, 1, 0, 0, 0, 0, 0, 0, 0]], [[0.17544397080088353, -1.5267332105523153, 1.8916525313393595, -1.3616109644106498, 0.6911741910133854, -0.35661908287549349, -0.33909360307767544, 0.77819721454323543, -0.66648627772102342, 0.34557353192642709, -0.1983999059498715], [0.12186972882022414, -0.030123383733134074, -0.89088515452140415, -0.29738046480028824, 1.2910611656715778, -1.2125159905096417, -0.071699905626450455, -0.15011234655466726, 0.30866075344461114, 0.0024673368499208257, -0.028883296146990183], [-1.8024027152686788, -0.67212013018473582, 0.50291514693898554, 0.25979932939472083, -0.62420792565734429, 0.94178194188611597, -0.88866625142469813, 0.56322935391790363, -0.35142115312004557, -0.16712619300866971, -0.11642542704821272], [0, 0, 0, 0, 1, 0, 0, 0, 0, 0, 0]], [[0.17171058888905055, 0.10125703270710489, 0.0017939330070218668, 0.50503624550584858, -0.21221944117611535, -0.041148378225301083, 0.29448131882138218, -0.739511824480105, 0.75077294889526269, -0.58652736798673444, 0.2889257788440478], [0.96181548759931923, 0.030611631568642984, -1.0744215342678707, -0.33538870667309606, 0.79271790607124759, 0.45649992783387722, -1.2253824984897581, 0.1258767229412471, 0.6194331951001375, -0.52563834876146065, 0.074241045435210123], [0, 0, 0, 0, 0, 1, 0, 0, 0, 0, 0], [0, 0, 0, 0, 0, 1, 0, 0, 0, 0, 0]]], prehc: 10000, lambdahc: 1, rcut: 7, dcut: 0.01, rcut_in: 1.2754761541823396, dcut_in: 0.10000000000000001, inner_cutoff_type: distance}
  [1, 0]: {nradmax: 6, lmax: 3, nradbasemax: 11, radbasename: SBessel, radparameters: [5.25], radcoefficients: [[[0.53385053050591957, -0.50163302123228082, 0.3788629798363925, -0.22119952697100728, 0.11921436891485176, -0.051258425762614898, -0.022265069644049319, 0.015694150541216822, 0.0050244489514866984, -0.022705780289508766, 0.013423645208087075], [0.04157556591431992, 0.73539440202946693, -1.7787426127209089, 2.0193759383340404, -1.6854754909675898, 1.0532761864448867, -0.86001888586357345, 0.72781797705123408, -0.39147086274727305, 0.2205739600775998, -0.070648378631174832], [0.38386725990060699, 0.40014150636259682, -0.94567256273847689, 1.1443797140682059, -0.90913431433712732, 0.64569292825178137, -0.47173801111912211, 0.39550368678623005, -0.22115061112559303, 0.15139991375918574, -0.028682398440313246], [-0.41383669573634474, 0.21185403684002649, -0.50034712729983732, 0.31312275480406493, -0.32848619577219673, 0.065661690250375812, -0.1510144996465784, 0.10445650907237335, -0.064095248988559561, 0.065681543903160028, -0.032693820274219201]], [[0.63835743400827083, 0.72883433100669526, -1.2297682759193447, 1.7912485388824471, -1.3355454348575608, 0.8674927062635347, -0.58556921491620251, 0.20491748295995726, 0.012805324393869024, -0.15906137528694239, 0.099515591927511943], [-1.4622510234242994, 1.5934935401024748, -1.3972343693243245, 1.1763437611236771, -0.75021095914238844, 0.47385595175719492, -0.38546847553426355, 0.32401999670581716, -0.14148040550957086, 0.061334746481043166, 0.001611568720335532], [0.063358408534583521, 1.0847700255569892, -1.1503519168768093, 0.954031455335275, -0.67846547232213472, 0.78398504761197574, -0.83819424722679503, 0.66937507952976094, -0.42552892543573295, 0.31753887122876262, -0.12536069569933977], [-0.86707025200624033, 0.5808790439591166, -0.75651445629206215, 0.34291809083748392, -0.16818325071712911, -0.16272774935150602, -0.023486080754136669, 0.0058640455477791545, -0.032601762580045442, 0.057463009564349465, -0.038257384483956929]], [[0.52858460499162496, -0.99030919216302005, 0.87652342103210867, -0.71547329565824191, 0.4747608153215449, -0.31954630271117984, 0.26453754680416086, -0.13048689570327232, 0.023953771617884142, 0.029417050054048422, -0.013080526049798792], [-0.28310885574144717, -0.70289238923984565, 1.5858520679654611, -0.59735500408184217, 0.056123444502083106, -0.049055953258648866, 0.35860117049920331, 0.11510255742842225, -0.26460348755403196, 0.065664208906086707, 0.039157220106801852], [0.65075090603587948, -0.16888075915130321, 0.51952431854155057, -0.76808735662281236, 0.40490355602515332, 0.20466516178203939, -0.65055212898452119, 0.60364354800386077, -0.48493807771385911, 0.32992927709874892, -0.15976722077024424], [2.0359484056571731, 0.46246419807995542, 1.0490303163876111, -1.299139104577844, 0.40888004750378143, 0.042956237181192021, 0.21894456372118037, 0.059211481376255926, -0.41946851453120632, 0.18157410838525764, 0.03033485468472738]], [[-0.41549461750790095, -0.18631122098493463, 0.37514044774016525, -0.17933818629101306, -0.14489973377829563, 0.23248948591076252, -0.62293788909209047, 0.86457551858844017, -0.68879291657051989, 0.39317702061020221, -0.2102546413005765], [2.5302048075536057, -1.8484738626606048, -0.30588873808809791, 1.510781538807106, -1.5834126363500858, 0.68556710667845255, -0.77407349474890941, 0.86044532988293088, -0.54079358167367486, 0.35790058705623051, -0.091158329722875839], [-2.0373825560410346, 1.5805357529758068, -0.03507276496620438, -0.90231717196243644, 0.46946260517485505, 0.065410091767367007, -0.25814942660201462, -0.0036147396437409981, -0.11770828250444769, 0.13973910823553659, -0.1385767619743728], [0, 0, 0, 1, 0, 0, 0, 0, 0, 0, 0]], [[0.17544397080088353, -1.5267332105523153, 1.8916525313393595, -1.3616109644106498, 0.6911741910133854, -0.35661908287549349, -0.33909360307767544, 0.77819721454323543, -0.66648627772102342, 0.34557353192642709, -0.1983999059498715], [0.12186972882022414, -0.030123383733134074, -0.89088515452140415, -0.29738046480028824, 1.2910611656715778, -1.2125159905096417, -0.071699905626450455, -0.15011234655466726, 0.30866075344461114, 0.0024673368499208257, -0.028883296146990183], [-1.8024027152686788, -0.67212013018473582, 0.50291514693898554, 0.25979932939472083, -0.62420792565734429, 0.94178194188611597, -0.88866625142469813, 0.56322935391790363, -0.35142115312004557, -0.16712619300866971, -0.11642542704821272], [0, 0, 0, 0, 1, 0, 0, 0, 0, 0, 0]], [[0.17171058888905055, 0.10125703270710489, 0.0017939330070218668, 0.50503624550584858, -0.21221944117611535, -0.041148378225301083, 0.29448131882138218, -0.739511824480105, 0.75077294889526269, -0.58652736798673444, 0.2889257788440478], [0.96181548759931923, 0.030611631568642984, -1.0744215342678707, -0.33538870667309606, 0.79271790607124759, 0.45649992783387722, -1.2253824984897581, 0.1258767229412471, 0.6194331951001375, -0.52563834876146065, 0.074241045435210123], [0, 0, 0, 0, 0, 1, 0, 0, 0, 0, 0], [0, 0, 0, 0, 0, 1, 0, 0, 0, 0, 0]]], prehc: 10000, lambdahc: 1, rcut: 7, dcut: 0.01, rcut_in: 1.2754761541823396, dcut_in: 0.10000000000000001, inner_cutoff_type: distance}
  [1, 1]: {nradmax: 6, lmax: 3, nradbasemax: 14, radbasename: SBessel, radparameters: [5.25], radcoefficients: [[[1.7096525636947606, -1.2043785255774264, 0.91762953133164227, -0.75066165670996332, 0.62039878045306118, -0.29791498741147859, 0.14888840269994466, -0.094004310153208231, 0.12688324901817857, -0.14130110278181185, 0.06906830382744944, -0.03708944450090524, 0.031382923334166028, -0.010234142285018826], [0.018756662922216519, 0.14045745854616293, -0.33679303127137294, 0.48173762519411095, -0.43310610676211209, 0.35244486601744918, -0.34418283260096549, 0.3410209819336068, -0.30034024896622019, 0.20008537289017947, -0.099603114209625254, 0.040807503014887211, -0.016560728420537317, 0.0062849497623344852], [-0.58085364986110311, 0.010990916925794876, 0.39962169178413687, -0.28673666019223104, 0.01643240089985919, 0.19521898125274523, -0.2223744571506838, 0.15426285573889031, -0.083642380036064848, 0.08261435655740354, -0.032130603297227764, 0.012911363721919301, 0.0025049231395641858, 0.007876967881680328], [0.4672586146915898, -0.54060657028980463, 1.0230935036157311, -1.4370145184727825, 1.6746318642364524, -1.5729335927416479, 1.4743100916926455, -1.2889221919740921, 0.96789411575121409, -0.67144592656588831, 0.43239564032693584, -0.22645652616624529, 0.11245956981088498, -0.037094038421840961]], [[0.97422477311148237, 0.30190237017459198, -0.7168158998490709, 1.0820036693394544, -1.1238583455621467, 1.2319867668943993, -1.0327714861943225, 0.80923724095797578, -0.50151402622423058, 0.31784086152112084, -0.26917086879318769, 0.11253355536700083, -0.00025491668096158855, -0.025951810255394465], [-0.4669683435832, -0.034119256154319773, 0.00075942390822105279, 0.35873196528493534, -0.39262292732581039, 0.2822145929967399, -0.34204605070239352, 0.34399831745309978, -0.26806390850431105, 0.17910822371506513, -0.067559134662285455, -0.010184994417926696, 0.0329554744253239, -0.011794151592499628], [-1.7757285450116604, 0.67756580066572358, -0.022917298582020306, 0.22626548045260358, -0.7657447022988878, 1.2070245723028159, -1.2327327459365127, 0.88603834047426799, -0.5188989304098518, 0.30071388303588192, -0.057968666602073379, -0.036367714108002928, 0.05434273942585361, -0.010508083688791151], [-0.37479150447813092, 0.30670541803341256, -0.0013302776806152069, -0.57731068284869891, 1.1018696674714052, -0.85738714823331219, 0.74153245788425004, -0.85553058701942819, 0.73709097729287609, -0.33165436529530412, 0.28409263042498289, -0.17547915121860602, 0.073042522850921943, -0.0094034576915991101]], [[-1.0737172560017463, 1.2689386211345528, -0.36266995165756749, 0.23117876500390286, 0.30027813228961892, -1.5582657429912428, 2.2572499639849846, -2.0352290630632845, 1.2748527149675157, -0.37418560105190579, -0.050835947833796316, 0.030351652995154899, -0.020844306053045422, -0.033505447843284117], [-0.54128543733043455, -0.33106822087368715, 0.71475428889594506, -0.42766935628570452, 0.22740246196187042, -0.19939792608956602, 0.084225682433952731, -0.012554697139051312, -0.027816348435263066, 0.069390559132576218, -0.042924793443262298, -0.0077023308847595645, 0.037999051283558002, -0.016585378949881914], [-1.8363686045145855, 1.2321520941265238, -0.46456377816874223, 0.53650069517292109, -0.84800853938834875, 1.0292394778606018, -1.0469004671149755, 0.91926874977786321, -0.6402851085705985, 0.46735569318499143, -0.3048353013463897, 0.14220491741420377, -0.042102854083260831, 0.02129438932981368], [1.3017839905875881, -0.89677963452866327, 0.6979386988560391, -0.20705778202700148, -0.00055202013403751174, -0.033424622046692061, 0.23820151378614918, -0.26415837930580177, 0.12168635572574182, -0.08675151752460776, 0.066914795282733752, 0.034691714698146102, -0.045128592279855384, 0.0096711606424145658]], [[-0.83495495764363337, 1.0460692343060831, -0.5506327342704892, 0.47169238051603846, -0.10317255972017986, -0.6417467243430327, 1.0705533466756252, -0.98689145319997285, 0.63354224091979783, -0.1747776229620927, -0.048551616029390315, 0.015288765631314668, -0.0015691075878805209, -0.024337261481654202], [2.1492066358904669, -1.1410915269663156, -0.8407578787783454, 0.40271523346165594, 0.26523392305736176, -0.24245448225068411, 0.27764724627357984, -0.5725584224049618, 0.78547421954543795, -0.81790647742423606, 0.61020069033333446, -0.25865258222864618, -0.018290424795108617, 0.03328706615734453], [-0.26301209926314012, -0.77331252915152937, 0.049612257709167142, 0.49995882063006297, -0.88796244408664426, 1.2769754551482813, -1.6145325750045458, 1.1150812109723898, -0.55185079261536996, 0.086950062872971579, 0.27698047213374744, -0.39975129172461127, 0.26766361669538941, -0.114171161641519], [1.5501773778151775, -1.1564745630151356, 0.52961909271387131, 0.1612310813130664, -0.15711253331064765, 0.20091533824702856, -0.094140974306486908, 0.035806254618587594, -0.084069875889327531, 0.2627848284182665, -0.13521786931043109, 0.14505229731663122, -0.10998206912256334, 0.052043523964240057]], [[1.3478476502519423, -1.6050277803784412, 1.1658927521139064, -0.69810807312853274, -0.049693662146842621, 1.1360830833686115, -1.6514558860746191, 1.557092095041362, -1.0212722166618924, 0.5154566581845561, -0.27058655850847468, 0.13598266092025019, -0.016941788231923192, 0.0076056934612538435], [1.8229412857045326, 0.80053224383613797, 0.27163711850539513, -0.83468600770306167, 0.19910635978767888, 0.22645367489845075, 0.46017471332280979, -0.9076602063409358, 0.86952092161691763, -0.41383353913227588, 0.12676574481820349, -0.018160979511585861, 0.018865677950832559, 0.0017021653551604612], [-0.37688825122303743, -0.6293444806658226, -0.15514476622965542, 0.099967841039387689, 0.88230550892312787, -1.1628270373899015, -0.35029182867739961, 0.84547378650012239, 0.53641825989216552, -0.99157484952006925, 0.56122212095989299, -0.32404882651186218, 0.41198183599060723, -0.18768853238832114], [0.12679932539923949, 2.8017845427161765, 0.21410707737498233, -0.66752003370430102, 0.30609508834014526, -0.15113706799821403, -1.4245087305155661, -0.62626387709679254, 0.40002607073330726, -0.061109539792087927, 0.90054949138974727, -0.67122556938228728, -1.2312330231700537, 0.2785777949832694]], [[-0.59300658117081317, -0.6157409368425073, 0.60130808193702812, -0.71437034512862807, 0.18301977443490708, 0.36911343704958216, -0.73730779801261748, 0.71338451280201776, -0.48898682675684485, 0.21476262525662054, -0.052366334291671604, 0.09078342092369511, -0.06554744856741139, 0.057332143206723217], [1.3523727963121457, -0.76098638642816396, -1.0051119108707209, 0.38101398331796266, -0.34639892422694468, 1.5939324567112001, -1.488260481138203, 0.39047934539430867, 0.4182066112244171, -0.56042325432444751, 0.44105198969650256, -0.0035877471094681516, -0.26580699912952249, 0.17325259657789857], [-1.2754697212153929, 2.473501036286355, 0.30522403310433471, -1.2410433829841885, 0.49682180580693308, -0.069648356817082008, 1.0945669021008175, -0.98556209568881814, 0.02381518758247397, 0.65095726213972538, -0.79359046887912765, 0.84729428339018376, -0.58868056356624998, 0.25481679351795861], [0.21178229736079315, 0.1603055831483087, -1.2862461973690658, 0.98393325705880907, 0.61451444172573144, 1.611981839020574, -0.57702529828351223, -0.67996175375395029, 1.1446313285732284, 0.1098911655403699, 0.15529767967945249, 0.31885406108798364, 0.16646389126338054, 0.037804704988447117]]], prehc: 10000, lambdahc: 1, rcut: 7, dcut: 0.01, rcut_in: 1.2754761541823396, dcut_in: 0.10000000000000001, inner_cutoff_type: distance}
functions:
  0:
    - {mu0: 0, rank: 1, ndensity: 2, num_ms_combs: 1, mus: [0], ns: [1], ls: [0], ms_combs: [0], ctildes: [-0.50535552052276611, 0.004709784397158287]}
    - {mu0: 0, rank: 1, ndensity: 2, num_ms_combs: 1, mus: [0], ns: [2], ls: [0], ms_combs: [0], ctildes: [-0.58867607347241702, -0.22526264205656474]}
    - {mu0: 0, rank: 1, ndensity: 2, num_ms_combs: 1, mus: [0], ns: [3], ls: [0], ms_combs: [0], ctildes: [0.97103894159509596, -0.16263154060023674]}
    - {mu0: 0, rank: 1, ndensity: 2, num_ms_combs: 1, mus: [0], ns: [4], ls: [0], ms_combs: [0], ctildes: [-0.59392551997360654, -0.31841778391677306]}
    - {mu0: 0, rank: 1, ndensity: 2, num_ms_combs: 1, mus: [0], ns: [5], ls: [0], ms_combs: [0], ctildes: [-2.3441949526416717, -0.57627784158015294]}
    - {mu0: 0, rank: 1, ndensity: 2, num_ms_combs: 1, mus: [0], ns: [6], ls: [0], ms_combs: [0], ctildes: [-0.3033897282093786, -0.021962601073581785]}
    - {mu0: 0, rank: 1, ndensity: 2, num_ms_combs: 1, mus: [0], ns: [7], ls: [0], ms_combs: [0], ctildes: [-1.2237297259261641, -0.28494470223274693]}
    - {mu0: 0, rank: 1, ndensity: 2, num_ms_combs: 1, mus: [0], ns: [8], ls: [0], ms_combs: [0], ctildes: [-1.5985256936894947, -0.59805651639833568]}
    - {mu0: 0, rank: 1, ndensity: 2, num_ms_combs: 1, mus: [0], ns: [9], ls: [0], ms_combs: [0], ctildes: [-0.02765881657180539, 0.57637425424894007]}
    - {mu0: 0, rank: 1, ndensity: 2, num_ms_combs: 1, mus: [0], ns: [10], ls: [0], ms_combs: [0], ctildes: [-0.63034654741209872, 0.27225069989654171]}
    - {mu0: 0, rank: 1, ndensity: 2, num_ms_combs: 1, mus: [0], ns: [11], ls: [0], ms_combs: [0], ctildes: [0.041443955584833526, -0.44604531096015682]}
    - {mu0: 0, rank: 1, ndensity: 2, num_ms_combs: 1, mus: [0], ns: [12], ls: [0], ms_combs: [0], ctildes: [-0.80641039636991252, 0.24429457456977316]}
    - {mu0: 0, rank: 1, ndensity: 2, num_ms_combs: 1, mus: [0], ns: [13], ls: [0], ms_combs: [0], ctildes: [0.25256906663402751, 0.035922397923356081]}
    - {mu0: 0, rank: 1, ndensity: 2, num_ms_combs: 1, mus: [0], ns: [14], ls: [0], ms_combs: [0], ctildes: [-0.87265534292664582, 0.094136066619589259]}
    - {mu0: 0, rank: 1, ndensity: 2, num_ms_combs: 1, mus: [1], ns: [1], ls: [0], ms_combs: [0], ctildes: [-3.4294476038997028, -0.14502197586133356]}
    - {mu0: 0, rank: 1, ndensity: 2, num_ms_combs: 1, mus: [1], ns: [2], ls: [0], ms_combs: [0], ctildes: [1.7273755762259875, 0.52607945966502445]}
    - {mu0: 0, rank: 1, ndensity: 2, num_ms_combs: 1, mus: [1], ns: [3], ls: [0], ms_combs: [0], ctildes: [-0.39911773730026817, -0.8467230960439287]}
    - {mu0: 0, rank: 1, ndensity: 2, num_ms_combs: 1, mus: [1], ns: [4], ls: [0], ms_combs: [0], ctildes: [-1.7843709281126467, 0.95649822348052238]}
    - {mu0: 0, rank: 1, ndensity: 2, num_ms_combs: 1, mus: [1], ns: [5], ls: [0], ms_combs: [0], ctildes: [1.929803117622362, -0.77226164159139077]}
    - {mu0: 0, rank: 1, ndensity: 2, num_ms_combs: 1, mus: [1], ns: [6], ls: [0], ms_combs: [0], ctildes: [-1.2095119862656605, 0.091234686379162683]}
    - {mu0: 0, rank: 1, ndensity: 2, num_ms_combs: 1, mus: [1], ns: [7], ls: [0], ms_combs: [0], ctildes: [0.66688994611378072, 0.49197035762401881]}
    - {mu0: 0, rank: 1, ndensity: 2, num_ms_combs: 1, mus: [1], ns: [8], ls: [0], ms_combs: [0], ctildes: [0.079409878820500601, -1.0431531379509358]}
    - {mu0: 0, rank: 1, ndensity: 2, num_ms_combs: 1, mus: [1], ns: [9], ls: [0], ms_combs: [0], ctildes: [-0.40985307023910861, 0.97538014231254921]}
    - {mu0: 0, rank: 1, ndensity: 2, num_ms_combs: 1, mus: [1], ns: [10], ls: [0], ms_combs: [0], ctildes: [0.51561627478396976, -0.80679031959584813]}
    - {mu0: 0, rank: 1, ndensity: 2, num_ms_combs: 1, mus: [1], ns: [11], ls: [0], ms_combs: [0], ctildes: [-0.28421564612486722, 0.36532591038241347]}
    - {mu0: 0, rank: 2, ndensity: 2, num_ms_combs: 1, mus: [0, 0], ns: [1, 1], ls: [0, 0], ms_combs: [0, 0], ctildes: [-0.14424293177740655, 0.055303758383338106]}
    - {mu0: 0, rank: 2, ndensity: 2, num_ms_combs: 2, mus: [0, 0], ns: [1, 1], ls: [1, 1], ms_combs: [0, 0, 1, -1], ctildes: [-0.084783638607971501, 0.32601610290136662, 0.16956727721594297, -0.65203220580273313]}
    - {mu0: 0, rank: 2, ndensity: 2, num_ms_combs: 3, mus: [0, 0], ns: [1, 1], ls: [2, 2], ms_combs: [0, 0, 1, -1, 2, -2], ctildes: [0.22063492939924351, -0.22565581671161369, -0.44126985879848707, 0.45131163342322744, 0.44126985879848718, -0.45131163342322755]}
    - {mu0: 0, rank: 2, ndensity: 2, num_ms_combs: 4, mus: [0, 0], ns: [1, 1], ls: [3, 3], ms_combs: [0, 0, 1, -1, 2, -2, 3, -3], ctildes: [0.021550454491155273, 0.04621922467447017, -0.043100908982310546, -0.092438449348940341, 0.043100908982310539, 0.092438449348940327, -0.043100908982310539, -0.092438449348940327]}
    - {mu0: 0, rank: 2, ndensity: 2, num_ms_combs: 1, mus: [0, 0], ns: [1, 2], ls: [0, 0], ms_combs: [0, 0], ctildes: [0.50086439574822117, 0.087452648347154771]}
    - {mu0: 0, rank: 2, ndensity: 2, num_ms_combs: 2, mus: [0, 0], ns: [1, 2], ls: [1, 1], ms_combs: [0, 0, 1, -1], ctildes: [0.12786218998139648, -0.19771570301119001, -0.2557243799627929, 0.39543140602237997]}
    - {mu0: 0, rank: 2, ndensity: 2, num_ms_combs: 3, mus: [0, 0], ns: [1, 2], ls: [2, 2], ms_combs: [0, 0, 1, -1, 2, -2], ctildes: [0.053463395207804187, -0.23644589948567107, -0.10692679041560839, 0.4728917989713422, 0.1069267904156084, -0.47289179897134231]}
    - {mu0: 0, rank: 2, ndensity: 2, num_ms_combs: 4, mus: [0, 0], ns: [1, 2], ls: [3, 3], ms_combs: [0, 0, 1, -1, 2, -2, 3, -3], ctildes: [0.041052993550087388, -0.16742447666455884, -0.082105987100174777, 0.33484895332911768, 0.082105987100174763, -0.33484895332911763, -0.082105987100174763, 0.33484895332911763]}
    - {mu0: 0, rank: 2, ndensity: 2, num_ms_combs: 1, mus: [0, 0], ns: [1, 3], ls: [0, 0], ms_combs: [0, 0], ctildes: [-0.30393740627765298, -0.00051180716086929529]}
    - {mu0: 0, rank: 2, ndensity: 2, num_ms_combs: 2, mus: [0, 0], ns: [1, 3], ls: [1, 1], ms_combs: [0, 0, 1, -1], ctildes: [0.16950280138121407, 0.068583583442091853, -0.33900560276242808, -0.13716716688418368]}
    - {mu0: 0, rank: 2, ndensity: 2, num_ms_combs: 3, mus: [0, 0], ns: [1, 3], ls: [2, 2], ms_combs: [0, 0, 1, -1, 2, -2], ctildes: [0.14144535128313021, 0.1489005730667087, -0.28289070256626042, -0.29780114613341746, 0.28289070256626053, 0.29780114613341752]}
    - {mu0: 0, rank: 2, ndensity: 2, num_ms_combs: 4, mus: [0, 0], ns: [1, 3], ls: [3, 3], ms_combs: [0, 0, 1, -1, 2, -2, 3, -3], ctildes: [-0.059106610939865391, -0.062599749054223622, 0.11821322187973078, 0.12519949810844724, -0.11821322187973075, -0.12519949810844722, 0.11821322187973075, 0.12519949810844722]}
    - {mu0: 0, rank: 2, ndensity: 2, num_ms_combs: 1, mus: [0, 0], ns: [1, 4], ls: [0, 0], ms_combs: [0, 0], ctildes: [0.86536093945248993, -0.69935111695186569]}
    - {mu0: 0, rank: 2, ndensity: 2, num_ms_combs: 2, mus: [0, 0], ns: [1, 4], ls: [1, 1], ms_combs: [0, 0, 1, -1], ctildes: [-0.17300956513063268, 0.77958343337205382, 0.3460191302612653, -1.5591668667441072]}
    - {mu0: 0, rank: 2, ndensity: 2, num_ms_combs: 3, mus: [0, 0], ns: [1, 4], ls: [2, 2], ms_combs: [0, 0, 1, -1, 2, -2], ctildes: [-0.047161417544492136, 0.15183034768115677, 0.094322835088984272, -0.30366069536231355, -0.0943228350889843, 0.30366069536231366]}
    - {mu0: 0, rank: 2, ndensity: 2, num_ms_combs: 4, mus: [0, 0], ns: [1, 4], ls: [3, 3], ms_combs: [0, 0, 1, -1, 2, -2, 3, -3], ctildes: [0.11091020579214474, -0.47477247309656684, -0.22182041158428947, 0.94954494619313368, 0.22182041158428945, -0.94954494619313357, -0.22182041158428945, 0.94954494619313357]}
    - {mu0: 0, rank: 2, ndensity: 2, num_ms_combs: 1, mus: [0, 0], ns: [1, 5], ls: [0, 0], ms_combs: [0, 0], ctildes: [-0.26122961813785966, 0.3244477325004998]}
    - {mu0: 0, rank: 2, ndensity: 2, num_ms_combs: 2, mus: [0, 0], ns: [1, 5], ls: [1, 1], ms_combs: [0, 0, 1, -1], ctildes: [-0.052094674484345446, -0.05443119553652747, 0.10418934896869088, 0.10886239107305491]}
    - {mu0: 0, rank: 2, ndensity: 2, num_ms_combs: 3, mus: [0, 0], ns: [1, 5], ls: [2, 2], ms_combs: [0, 0, 1, -1, 2, -2], ctildes: [0.011332350373396352, -0.086229219348552488, -0.022664700746792707, 0.172458438697105, 0.02266470074679271, -0.17245843869710506]}
    - {mu0: 0, rank: 2, ndensity: 2, num_ms_combs: 4, mus: [0, 0], ns: [1, 5], ls: [3, 3], ms_combs: [0, 0, 1, -1, 2, -2, 3, -3], ctildes: [0.025208668134199263, -0.15173574343332311, -0.050417336268398526, 0.30347148686664621, 0.050417336268398519, -0.30347148686664621, -0.050417336268398519, 0.30347148686664621]}
    - {mu0: 0, rank: 2, ndensity: 2, num_ms_combs: 1, mus: [0, 0], ns: [1, 6], ls: [0, 0], ms_combs: [0, 0], ctildes: [-0.10722739319322852, 0.011580162207673448]}
    - {mu0: 0, rank: 2, ndensity: 2, num_ms_combs: 2, mus: [0, 0], ns: [1, 6], ls: [1, 1], ms_combs: [0, 0, 1, -1], ctildes: [0.00023685506397565971, 0.09255010363460113, -0.00047371012795131932, -0.1851002072692022]}
    - {mu0: 0, rank: 2, ndensity: 2, num_ms_combs: 3, mus: [0, 0], ns: [1, 6], ls: [2, 2], ms_combs: [0, 0, 1, -1, 2, -2], ctildes: [0.11532394370083882, -0.38925763530900709, -0.23064788740167766, 0.77851527061801429, 0.23064788740167771, -0.7785152706180144]}
    - {mu0: 0, rank: 2, ndensity: 2, num_ms_combs: 4, mus: [0, 0], ns: [1, 6], ls: [3, 3], ms_combs: [0, 0, 1, -1, 2, -2, 3, -3], ctildes: [-0.067338067395742524, 0.21602997703438245, 0.13467613479148505, -0.43205995406876491, -0.13467613479148502, 0.43205995406876485, 0.13467613479148502, -0.43205995406876485]}
    - {mu0: 0, rank: 2, ndensity: 2, num_ms_combs: 1, mus: [0, 0], ns: [2, 2], ls: [0, 0], ms_combs: [0, 0], ctildes: [1.1747402495075216, 0.15472645180535743]}
    - {mu0: 0, rank: 2, ndensity: 2, num_ms_combs: 2, mus: [0, 0], ns: [2, 2], ls: [1, 1], ms_combs: [0, 0, 1, -1], ctildes: [0.48794237002514623, -0.20941183163052057, -0.97588474005029224, 0.41882366326104103]}
    - {mu0: 0, rank: 2, ndensity: 2, num_ms_combs: 3, mus: [0, 0], ns: [2, 2], ls: [2, 2], ms_combs: [0, 0, 1, -1, 2, -2], ctildes: [0.13486614447786435, -0.31862678947589529, -0.26973228895572876, 0.63725357895179069, 0.26973228895572882, -0.6372535789517908]}
    - {mu0: 0, rank: 2, ndensity: 2, num_ms_combs: 4, mus: [0, 0], ns: [2, 2], ls: [3, 3], ms_combs: [0, 0, 1, -1, 2, -2, 3, -3], ctildes: [-0.053529659287103779, 0.23966188796093491, 0.10705931857420756, -0.47932377592186981, -0.10705931857420754, 0.4793237759218697, 0.10705931857420754, -0.4793237759218697]}
    - {mu0: 0, rank: 2, ndensity: 2, num_ms_combs: 1, mus: [0, 0], ns: [2, 3], ls: [0, 0], ms_combs: [0, 0], ctildes: [-0.00056393060211709124, 0.072345605452289796]}
    - {mu0: 0, rank: 2, ndensity: 2, num_ms_combs: 2, mus: [0, 0], ns: [2, 3], ls: [1, 1], ms_combs: [0, 0, 1, -1], ctildes: [0.040369115947220015, 0.038626883044805979, -0.080738231894440016, -0.077253766089611944]}
    - {mu0: 0, rank: 2, ndensity: 2, num_ms_combs: 3, mus: [0, 0], ns: [2, 3], ls: [2, 2], ms_combs: [0, 0, 1, -1, 2, -2], ctildes: [-0.011355831217972349, 0.07137650700701452, 0.022711662435944701, -0.14275301401402904, -0.022711662435944704, 0.14275301401402909]}
    - {mu0: 0, rank: 2, ndensity: 2, num_ms_combs: 4, mus: [0, 0], ns: [2, 3], ls: [3, 3], ms_combs: [0, 0, 1, -1, 2, -2, 3, -3], ctildes: [0.12934626809329472, -0.26443439929916784, -0.25869253618658944, 0.52886879859833569, 0.25869253618658938, -0.52886879859833569, -0.25869253618658938, 0.52886879859833569]}
    - {mu0: 0, rank: 2, ndensity: 2, num_ms_combs: 1, mus: [0, 0], ns: [2, 4], ls: [0, 0], ms_combs: [0, 0], ctildes: [-0.096200177123471994, 0.43975431631534584]}
    - {mu0: 0, rank: 2, ndensity: 2, num_ms_combs: 2, mus: [0, 0], ns: [2, 4], ls: [1, 1], ms_combs: [0, 0, 1, -1], ctildes: [-0.076466091862921137, 0.31997363390400735, 0.15293218372584225, -0.63994726780801459]}
    - {mu0: 0, rank: 2, ndensity: 2, num_ms_combs: 3, mus: [0, 0], ns: [2, 4], ls: [2, 2], ms_combs: [0, 0, 1, -1, 2, -2], ctildes: [-0.29045264880838884, 0.056344532307535916, 0.58090529761677778, -0.11268906461507185, -0.58090529761677789, 0.11268906461507189]}
    - {mu0: 0, rank: 2, ndensity: 2, num_ms_combs: 4, mus: [0, 0], ns: [2, 4], ls: [3, 3], ms_combs: [0, 0, 1, -1, 2, -2, 3, -3], ctildes: [0.040712519742383345, -0.035559377458525554, -0.08142503948476669, 0.071118754917051108, 0.081425039484766676, -0.071118754917051094, -0.081425039484766676, 0.071118754917051094]}
    - {mu0: 0, rank: 2, ndensity: 2, num_ms_combs: 1, mus: [0, 0], ns: [2, 5], ls: [0, 0], ms_combs: [0, 0], ctildes: [0.15148639165568772, 0.20651649866847416]}
    - {mu0: 0, rank: 2, ndensity: 2, num_ms_combs: 2, mus: [0, 0], ns: [2, 5], ls: [1, 1], ms_combs: [0, 0, 1, -1], ctildes: [0.10104803453393858, 0.1667515032251595, -0.20209606906787714, -0.33350300645031894]}
    - {mu0: 0, rank: 2, ndensity: 2, num_ms_combs: 3, mus: [0, 0], ns: [2, 5], ls: [2, 2], ms_combs: [0, 0, 1, -1, 2, -2], ctildes: [-0.051313718755368817, 0.1151445825128853, 0.10262743751073765, -0.23028916502577063, -0.10262743751073768, 0.23028916502577068]}
    - {mu0: 0, rank: 2, ndensity: 2, num_ms_combs: 4, mus: [0, 0], ns: [2, 5], ls: [3, 3], ms_combs: [0, 0, 1, -1, 2, -2, 3, -3], ctildes: [0.010143806273089338, -0.015300062326223884, -0.020287612546178675, 0.030600124652447769, 0.020287612546178672, -0.030600124652447765, -0.020287612546178672, 0.030600124652447765]}
    - {mu0: 0, rank: 2, ndensity: 2, num_ms_combs: 1, mus: [0, 0], ns: [2, 6], ls: [0, 0], ms_combs: [0, 0], ctildes: [0.076197147920611219, -0.65339935053175191]}
    - {mu0: 0, rank: 2, ndensity: 2, num_ms_combs: 2, mus: [0, 0], ns: [2, 6], ls: [1, 1], ms_combs: [0, 0, 1, -1], ctildes: [-0.019103616026144282, 0.0050429500197163276, 0.038207232052288556, -0.010085900039432653]}
    - {mu0: 0, rank: 2, ndensity: 2, num_ms_combs: 3, mus: [0, 0], ns: [2, 6], ls: [2, 2], ms_combs: [0, 0, 1, -1, 2, -2], ctildes: [-0.068880302558298731, 0.30939414533815568, 0.13776060511659746, -0.61878829067631147, -0.13776060511659749, 0.61878829067631158]}
    - {mu0: 0, rank: 2, ndensity: 2, num_ms_combs: 1, mus: [0, 0], ns: [3, 3], ls: [0, 0], ms_combs: [0, 0], ctildes: [0.22749448515876247, -0.020796026341640995]}
    - {mu0: 0, rank: 2, ndensity: 2, num_ms_combs: 2, mus: [0, 0], ns: [3, 3], ls: [1, 1], ms_combs: [0, 0, 1, -1], ctildes: [0.21639907709708531, 0.61957401412722435, -0.4327981541941705, -1.2391480282544485]}
    - {mu0: 0, rank: 2, ndensity: 2, num_ms_combs: 3, mus: [0, 0], ns: [3, 3], ls: [2, 2], ms_combs: [0, 0, 1, -1, 2, -2], ctildes: [-0.056773968267041501, -0.1061570600069701, 0.11354793653408302, 0.21231412001394023, -0.11354793653408304, -0.21231412001394029]}
    - {mu0: 0, rank: 2, ndensity: 2, num_ms_combs: 4, mus: [0, 0], ns: [3, 3], ls: [3, 3], ms_combs: [0, 0, 1, -1, 2, -2, 3, -3], ctildes: [-0.016054363107570489, 0.064049172173212529, 0.032108726215140979, -0.12809834434642506, -0.032108726215140972, 0.12809834434642503, 0.032108726215140972, -0.12809834434642503]}
    - {mu0: 0, rank: 2, ndensity: 2, num_ms_combs: 1, mus: [0, 0], ns: [3, 4], ls: [0, 0], ms_combs: [0, 0], ctildes: [0.45948219904214971, 0.28422647587110322]}
    - {mu0: 0, rank: 2, ndensity: 2, num_ms_combs: 2, mus: [0, 0], ns: [3, 4], ls: [1, 1], ms_combs: [0, 0, 1, -1], ctildes: [-0.38793100979929196, -0.30513020064951057, 0.77586201959858381, 0.61026040129902104]}
    - {mu0: 0, rank: 2, ndensity: 2, num_ms_combs: 3, mus: [0, 0], ns: [3, 4], ls: [2, 2], ms_combs: [0, 0, 1, -1, 2, -2], ctildes: [0.1274109116425762, 0.11383700971945303, -0.2548218232851524, -0.22767401943890608, 0.25482182328515246, 0.22767401943890614]}
    - {mu0: 0, rank: 2, ndensity: 2, num_ms_combs: 4, mus: [0, 0], ns: [3, 4], ls: [3, 3], ms_combs: [0, 0, 1, -1, 2, -2, 3, -3], ctildes: [0.0030236308666887401, 0.010370939581081007, -0.0060472617333774802, -0.020741879162162014, 0.0060472617333774794, 0.020741879162162011, -0.0060472617333774794, -0.020741879162162011]}
    - {mu0: 0, rank: 2, ndensity: 2, num_ms_combs: 1, mus: [0, 0], ns: [3, 5], ls: [0, 0], ms_combs: [0, 0], ctildes: [0.12843037779656929, -0.11774847070944656]}
    - {mu0: 0, rank: 2, ndensity: 2, num_ms_combs: 2, mus: [0, 0], ns: [3, 5], ls: [1, 1], ms_combs: [0, 0, 1, -1], ctildes: [0.11356393355701729, 0.039983868117228705, -0.22712786711403452, -0.079967736234457396]}
    - {mu0: 0, rank: 2, ndensity: 2, num_ms_combs: 3, mus: [0, 0], ns: [3, 5], ls: [2, 2], ms_combs: [0, 0, 1, -1, 2, -2], ctildes: [0.053092717225649518, -0.10673125822452814, -0.10618543445129905, 0.21346251644905631, 0.10618543445129908, -0.21346251644905637]}
    - {mu0: 0, rank: 2, ndensity: 2, num_ms_combs: 1, mus: [0, 0], ns: [3, 6], ls: [0, 0], ms_combs: [0, 0], ctildes: [-0.42364219248168139, -0.22553201821145122]}
    - {mu0: 0, rank: 2, ndensity: 2, num_ms_combs: 2, mus: [0, 0], ns: [3, 6], ls: [1, 1], ms_combs: [0, 0, 1, -1], ctildes: [-0.13414919363542049, 0.20754324446710351, 0.26829838727084093, -0.41508648893420691]}
    - {mu0: 0, rank: 2, ndensity: 2, num_ms_combs: 3, mus: [0, 0], ns: [3, 6], ls: [2, 2], ms_combs: [0, 0, 1, -1, 2, -2], ctildes: [0.035901596964277957, -0.12336806325856492, -0.071803193928555914, 0.24673612651712987, 0.071803193928555928, -0.24673612651712992]}
    - {mu0: 0, rank: 2, ndensity: 2, num_ms_combs: 1, mus: [0, 0], ns: [4, 4], ls: [0, 0], ms_combs: [0, 0], ctildes: [-0.093328227624842122, 0.078124536945987838]}
    - {mu0: 0, rank: 2, ndensity: 2, num_ms_combs: 2, mus: [0, 0], ns: [4, 4], ls: [1, 1], ms_combs: [0, 0, 1, -1], ctildes: [0.097184526020927059, -0.46070917876955331, -0.19436905204185406, 0.92141835753910639]}
    - {mu0: 0, rank: 2, ndensity: 2, num_ms_combs: 3, mus: [0, 0], ns: [4, 4], ls: [2, 2], ms_combs: [0, 0, 1, -1, 2, -2], ctildes: [-0.073242835452560023, 0.42183498125833602, 0.14648567090512005, -0.84366996251667215, -0.1464856709051201, 0.84366996251667237]}
    - {mu0: 0, rank: 2, ndensity: 2, num_ms_combs: 1, mus: [0, 0], ns: [4, 5], ls: [0, 0], ms_combs: [0, 0], ctildes: [-0.12027635510733584, 0.14403454391662771]}
    - {mu0: 0, rank: 2, ndensity: 2, num_ms_combs: 2, mus: [0, 0], ns: [4, 5], ls: [1, 1], ms_combs: [0, 0, 1, -1], ctildes: [0.19259822670481408, 0.14289291861721753, -0.3851964534096281, -0.28578583723443501]}
    - {mu0: 0, rank: 2, ndensity: 2, num_ms_combs: 3, mus: [0, 0], ns: [4, 5], ls: [2, 2], ms_combs: [0, 0, 1, -1, 2, -2], ctildes: [0.06513868489980032, -0.1620432372438661, -0.13027736979960067, 0.32408647448773226, 0.1302773697996007, -0.32408647448773231]}
    - {mu0: 0, rank: 2, ndensity: 2, num_ms_combs: 1, mus: [0, 0], ns: [4, 6], ls: [0, 0], ms_combs: [0, 0], ctildes: [0.21392031759817606, -0.23334187939578971]}
    - {mu0: 0, rank: 2, ndensity: 2, num_ms_combs: 2, mus: [0, 0], ns: [4, 6], ls: [1, 1], ms_combs: [0, 0, 1, -1], ctildes: [-0.030069948731631845, 0.075727488776288335, 0.060139897463263675, -0.15145497755257664]}
    - {mu0: 0, rank: 2, ndensity: 2, num_ms_combs: 1, mus: [0, 0], ns: [5, 5], ls: [0, 0], ms_combs: [0, 0], ctildes: [0.066762043267464127, -0.14344768257913121]}
    - {mu0: 0, rank: 2, ndensity: 2, num_ms_combs: 2, mus: [0, 0], ns: [5, 5], ls: [1, 1], ms_combs: [0, 0, 1, -1], ctildes: [-0.26209819617921776, 0.40755683591938124, 0.5241963923584354, -0.81511367183876238]}
    - {mu0: 0, rank: 2, ndensity: 2, num_ms_combs: 1, mus: [0, 0], ns: [5, 6], ls: [0, 0], ms_combs: [0, 0], ctildes: [0.075484327795505415, 0.02450985740061121]}
    - {mu0: 0, rank: 2, ndensity: 2, num_ms_combs: 2, mus: [0, 0], ns: [5, 6], ls: [1, 1], ms_combs: [0, 0, 1, -1], ctildes: [0.19407870732149102, -0.47212078732569618, -0.38815741464298192, 0.94424157465139213]}
    - {mu0: 0, rank: 2, ndensity: 2, num_ms_combs: 1, mus: [0, 0], ns: [6, 6], ls: [0, 0], ms_combs: [0, 0], ctildes: [-0.10120019552298584, -0.012937954731084091]}
    - {mu0: 0, rank: 2, ndensity: 2, num_ms_combs: 1, mus: [0, 1], ns: [1, 1], ls: [0, 0], ms_combs: [0, 0], ctildes: [-0.39995399321739922, -0.17215713103775984]}
    - {mu0: 0, rank: 2, ndensity: 2, num_ms_combs: 2, mus: [0, 1], ns: [1, 1], ls: [1, 1], ms_combs: [0, 0, 1, -1], ctildes: [0.40500171936232354, -0.2394130715670246, -0.81000343872464686, 0.47882614313404914]}
    - {mu0: 0, rank: 2, ndensity: 2, num_ms_combs: 3, mus: [0, 1], ns: [1, 1], ls: [2, 2], ms_combs: [0, 0, 1, -1, 2, -2], ctildes: [-0.23102994581699124, 0.074234858918863486, 0.46205989163398253, -0.14846971783772697, -0.46205989163398264, 0.14846971783772703]}
    - {mu0: 0, rank: 2, ndensity: 2, num_ms_combs: 4, mus: [0, 1], ns: [1, 1], ls: [3, 3], ms_combs: [0, 0, 1, -1, 2, -2, 3, -3], ctildes: [-0.095947285209656355, -0.066219249384286125, 0.19189457041931271, 0.13243849876857225, -0.19189457041931268, -0.13243849876857222, 0.19189457041931268, 0.13243849876857222]}
    - {mu0: 0, rank: 2, ndensity: 2, num_ms_combs: 1, mus: [0, 1], ns: [1, 2], ls: [0, 0], ms_combs: [0, 0], ctildes: [-0.41918435524087477, -1.1054348265447753]}
    - {mu0: 0, rank: 2, ndensity: 2, num_ms_combs: 2, mus: [0, 1], ns: [1, 2], ls: [1, 1], ms_combs: [0, 0, 1, -1], ctildes: [-0.6614049772267957, -0.040684349361486752, 1.3228099544535912, 0.08136869872297349]}
    - {mu0: 0, rank: 2, ndensity: 2, num_ms_combs: 3, mus: [0, 1], ns: [1, 2], ls: [2, 2], ms_combs: [0, 0, 1, -1, 2, -2], ctildes: [-0.43317279483470372, 0.73305059696446417, 0.86634558966940756, -1.4661011939289283, -0.86634558966940778, 1.4661011939289288]}
    - {mu0: 0, rank: 2, ndensity: 2, num_ms_combs: 4, mus: [0, 1], ns: [1, 2], ls: [3, 3], ms_combs: [0, 0, 1, -1, 2, -2, 3, -3], ctildes: [0.083452082751585888, -0.074527042215475139, -0.16690416550317178, 0.14905408443095028, 0.16690416550317175, -0.14905408443095025, -0.16690416550317175, 0.14905408443095025]}
    - {mu0: 0, rank: 2, ndensity: 2, num_ms_combs: 1, mus: [0, 1], ns: [1, 3], ls: [0, 0], ms_combs: [0, 0], ctildes: [0.047186785813288598, 0.31962549561849468]}
    - {mu0: 0, rank: 2, ndensity: 2, num_ms_combs: 2, mus: [0, 1], ns: [1, 3], ls: [1, 1], ms_combs: [0, 0, 1, -1], ctildes: [0.021984608158655647, 0.26464166528789501, -0.043969216317311287, -0.52928333057578991]}
    - {mu0: 0, rank: 2, ndensity: 2, num_ms_combs: 3, mus: [0, 1], ns: [1, 3], ls: [2, 2], ms_combs: [0, 0, 1, -1, 2, -2], ctildes: [0.066312965934128235, -0.024322619256423469, -0.1326259318682565, 0.048645238512846946, 0.13262593186825652, -0.04864523851284696]}
    - {mu0: 0, rank: 2, ndensity: 2, num_ms_combs: 4, mus: [0, 1], ns: [1, 3], ls: [3, 3], ms_combs: [0, 0, 1, -1, 2, -2, 3, -3], ctildes: [0.025140952178523194, -0.04524263371575625, -0.050281904357046388, 0.090485267431512501, 0.050281904357046381, -0.090485267431512487, -0.050281904357046381, 0.090485267431512487]}
    - {mu0: 0, rank: 2, ndensity: 2, num_ms_combs: 1, mus: [0, 1], ns: [1, 4], ls: [0, 0], ms_combs: [0, 0], ctildes: [0.33528907992450696, -1.0294356865913674]}
    - {mu0: 0, rank: 2, ndensity: 2, num_ms_combs: 2, mus: [0, 1], ns: [1, 4], ls: [1, 1], ms_combs: [0, 0, 1, -1], ctildes: [-0.039939790362232601, -0.23959022255991844, 0.079879580724465188, 0.47918044511983682]}
    - {mu0: 0, rank: 2, ndensity: 2, num_ms_combs: 3, mus: [0, 1], ns: [1, 4], ls: [2, 2], ms_combs: [0, 0, 1, -1, 2, -2], ctildes: [-0.15394553949946743, 0.16659267999691152, 0.30789107899893492, -0.33318535999382309, -0.30789107899893497, 0.33318535999382315]}
    - {mu0: 0, rank: 2, ndensity: 2, num_ms_combs: 1, mus: [0, 1], ns: [1, 5], ls: [0, 0], ms_combs: [0, 0], ctildes: [0.026972038281218639, -0.39808448866252827]}
    - {mu0: 0, rank: 2, ndensity: 2, num_ms_combs: 2, mus: [0, 1], ns: [1, 5], ls: [1, 1], ms_combs: [0, 0, 1, -1], ctildes: [0.072818098198978387, 0.22890623446054167, -0.14563619639795675, -0.45781246892108324]}
    - {mu0: 0, rank: 2, ndensity: 2, num_ms_combs: 3, mus: [0, 1], ns: [1, 5], ls: [2, 2], ms_combs: [0, 0, 1, -1, 2, -2], ctildes: [-0.067458784100989336, 0.33695368401580217, 0.1349175682019787, -0.67390736803160445, -0.13491756820197873, 0.67390736803160467]}
    - {mu0: 0, rank: 2, ndensity: 2, num_ms_combs: 1, mus: [0, 1], ns: [1, 6], ls: [0, 0], ms_combs: [0, 0], ctildes: [-0.15237759005565507, -0.35456947633284064]}
    - {mu0: 0, rank: 2, ndensity: 2, num_ms_combs: 2, mus: [0, 1], ns: [1, 6], ls: [1, 1], ms_combs: [0, 0, 1, -1], ctildes: [-0.061081536072877779, 0.13449657185630931, 0.12216307214575553, -0.26899314371261857]}
    - {mu0: 0, rank: 2, ndensity: 2, num_ms_combs: 1, mus: [0, 1], ns: [2, 1], ls: [0, 0], ms_combs: [0, 0], ctildes: [-0.38537742050382162, 0.2738413079566363]}
    - {mu0: 0, rank: 2, ndensity: 2, num_ms_combs: 2, mus: [0, 1], ns: [2, 1], ls: [1, 1], ms_combs: [0, 0, 1, -1], ctildes: [-0.67154317181539902, 0.036966539803564534, 1.3430863436307978, -0.073933079607129054]}
    - {mu0: 0, rank: 2, ndensity: 2, num_ms_combs: 3, mus: [0, 1], ns: [2, 1], ls: [2, 2], ms_combs: [0, 0, 1, -1, 2, -2], ctildes: [0.17136927491499229, -0.25871356596590633, -0.34273854982998464, 0.51742713193181278, 0.3427385498299847, -0.51742713193181289]}
    - {mu0: 0, rank: 2, ndensity: 2, num_ms_combs: 4, mus: [0, 1], ns: [2, 1], ls: [3, 3], ms_combs: [0, 0, 1, -1, 2, -2, 3, -3], ctildes: [0.06539771659394393, -0.26589004543509914, -0.13079543318788786, 0.53178009087019829, 0.13079543318788783, -0.53178009087019817, -0.13079543318788783, 0.53178009087019817]}
    - {mu0: 0, rank: 2, ndensity: 2, num_ms_combs: 1, mus: [0, 1], ns: [2, 2], ls: [0, 0], ms_combs: [0, 0], ctildes: [-0.22597227237910911, -0.50189263794052608]}
    - {mu0: 0, rank: 2, ndensity: 2, num_ms_combs: 2, mus: [0, 1], ns: [2, 2], ls: [1, 1], ms_combs: [0, 0, 1, -1], ctildes: [0.13748187320437064, 0.069868583156167077, -0.27496374640874122, -0.13973716631233413]}
    - {mu0: 0, rank: 2, ndensity: 2, num_ms_combs: 3, mus: [0, 1], ns: [2, 2], ls: [2, 2], ms_combs: [0, 0, 1, -1, 2, -2], ctildes: [0.19941838098343845, -0.057484041659167817, -0.39883676196687695, 0.11496808331833565, 0.39883676196687706, -0.11496808331833568]}
    - {mu0: 0, rank: 2, ndensity: 2, num_ms_combs: 4, mus: [0, 1], ns: [2, 2], ls: [3, 3], ms_combs: [0, 0, 1, -1, 2, -2, 3, -3], ctildes: [0.028218034605872175, -0.091691191761027219, -0.05643606921174435, 0.18338238352205444, 0.056436069211744343, -0.18338238352205441, -0.056436069211744343, 0.18338238352205441]}
    - {mu0: 0, rank: 2, ndensity: 2, num_ms_combs: 1, mus: [0, 1], ns: [2, 3], ls: [0, 0], ms_combs: [0, 0], ctildes: [-0.031800691027390734, 0.15793961660075811]}
    - {mu0: 0, rank: 2, ndensity: 2, num_ms_combs: 2, mus: [0, 1], ns: [2, 3], ls: [1, 1], ms_combs: [0, 0, 1, -1], ctildes: [-0.12059229667767724, 0.45518314036362251, 0.24118459335535442, -0.91036628072724479]}
    - {mu0: 0, rank: 2, ndensity: 2, num_ms_combs: 3, mus: [0, 1], ns: [2, 3], ls: [2, 2], ms_combs: [0, 0, 1, -1, 2, -2], ctildes: [0.0057259471628310415, -0.26448652233694303, -0.011451894325662085, 0.52897304467388617, 0.011451894325662086, -0.52897304467388628]}
    - {mu0: 0, rank: 2, ndensity: 2, num_ms_combs: 1, mus: [0, 1], ns: [2, 4], ls: [0, 0], ms_combs: [0, 0], ctildes: [-0.35095140213675607, -0.73559063900143806]}
    - {mu0: 0, rank: 2, ndensity: 2, num_ms_combs: 2, mus: [0, 1], ns: [2, 4], ls: [1, 1], ms_combs: [0, 0, 1, -1], ctildes: [0.11450975283647419, -0.40741928213386752, -0.22901950567294832, 0.81483856426773493]}
    - {mu0: 0, rank: 2, ndensity: 2, num_ms_combs: 3, mus: [0, 1], ns: [2, 4], ls: [2, 2], ms_combs: [0, 0, 1, -1, 2, -2], ctildes: [-0.086371270861545613, 0.48568429821466003, 0.17274254172309125, -0.97136859642932016, -0.17274254172309128, 0.9713685964293205]}
    - {mu0: 0, rank: 2, ndensity: 2, num_ms_combs: 1, mus: [0, 1], ns: [2, 5], ls: [0, 0], ms_combs: [0, 0], ctildes: [0.28453997775787987, 0.39240976948543205]}
    - {mu0: 0, rank: 2, ndensity: 2, num_ms_combs: 2, mus: [0, 1], ns: [2, 5], ls: [1, 1], ms_combs: [0, 0, 1, -1], ctildes: [0.011127772745160669, 0.47872931858357848, -0.02225554549032133, -0.95745863716715685]}
    - {mu0: 0, rank: 2, ndensity: 2, num_ms_combs: 1, mus: [0, 1], ns: [2, 6], ls: [0, 0], ms_combs: [0, 0], ctildes: [0.21728424875133223, -0.55407389340968116]}
    - {mu0: 0, rank: 2, ndensity: 2, num_ms_combs: 2, mus: [0, 1], ns: [2, 6], ls: [1, 1], ms_combs: [0, 0, 1, -1], ctildes: [0.0053600739618777874, -0.0867060527264535, -0.010720147923755573, 0.17341210545290697]}
    - {mu0: 0, rank: 2, ndensity: 2, num_ms_combs: 1, mus: [0, 1], ns: [3, 1], ls: [0, 0], ms_combs: [0, 0], ctildes: [0.17818663981670549, 0.2258563958408987]}
    - {mu0: 0, rank: 2, ndensity: 2, num_ms_combs: 2, mus: [0, 1], ns: [3, 1], ls: [1, 1], ms_combs: [0, 0, 1, -1], ctildes: [0.29225937574998595, -0.67516481696104558, -0.58451875149997179, 1.3503296339220909]}
    - {mu0: 0, rank: 2, ndensity: 2, num_ms_combs: 3, mus: [0, 1], ns: [3, 1], ls: [2, 2], ms_combs: [0, 0, 1, -1, 2, -2], ctildes: [-0.15538997110734554, -0.23628826462226435, 0.31077994221469107, 0.47257652924452875, -0.31077994221469118, -0.47257652924452886]}
    - {mu0: 0, rank: 2, ndensity: 2, num_ms_combs: 4, mus: [0, 1], ns: [3, 1], ls: [3, 3], ms_combs: [0, 0, 1, -1, 2, -2, 3, -3], ctildes: [-0.057755020532997879, 0.15979924057211775, 0.11551004106599576, -0.3195984811442355, -0.11551004106599574, 0.31959848114423545, 0.11551004106599574, -0.31959848114423545]}
    - {mu0: 0, rank: 2, ndensity: 2, num_ms_combs: 1, mus: [0, 1], ns: [3, 2], ls: [0, 0], ms_combs: [0, 0], ctildes: [-0.094338395466430122, -0.73565174855681037]}
    - {mu0: 0, rank: 2, ndensity: 2, num_ms_combs: 2, mus: [0, 1], ns: [3, 2], ls: [1, 1], ms_combs: [0, 0, 1, -1], ctildes: [-0.4120982611555597, -0.0029833609690032505, 0.82419652231111917, 0.0059667219380065001]}
    - {mu0: 0, rank: 2, ndensity: 2, num_ms_combs: 3, mus: [0, 1], ns: [3, 2], ls: [2, 2], ms_combs: [0, 0, 1, -1, 2, -2], ctildes: [-0.10515136979259181, -0.037570400984691707, 0.21030273958518364, 0.075140801969383414, -0.2103027395851837, -0.075140801969383442]}
    - {mu0: 0, rank: 2, ndensity: 2, num_ms_combs: 1, mus: [0, 1], ns: [3, 3], ls: [0, 0], ms_combs: [0, 0], ctildes: [0.57622417275769766, -0.10310568417504568]}
    - {mu0: 0, rank: 2, ndensity: 2, num_ms_combs: 2, mus: [0, 1], ns: [3, 3], ls: [1, 1], ms_combs: [0, 0, 1, -1], ctildes: [0.052897134543408629, -0.27196452015792349, -0.10579426908681724, 0.54392904031584688]}
    - {mu0: 0, rank: 2, ndensity: 2, num_ms_combs: 3, mus: [0, 1], ns: [3, 3], ls: [2, 2], ms_combs: [0, 0, 1, -1, 2, -2], ctildes: [0.04196580896382409, 0.16327620156813488, -0.083931617927648194, -0.32655240313626982, 0.083931617927648208, 0.32655240313626988]}
    - {mu0: 0, rank: 2, ndensity: 2, num_ms_combs: 1, mus: [0, 1], ns: [3, 4], ls: [0, 0], ms_combs: [0, 0], ctildes: [-0.75563586954430606, -0.10622572738729073]}
    - {mu0: 0, rank: 2, ndensity: 2, num_ms_combs: 2, mus: [0, 1], ns: [3, 4], ls: [1, 1], ms_combs: [0, 0, 1, -1], ctildes: [-0.11054672723245489, 0.1994296916105045, 0.22109345446490974, -0.39885938322100895]}
    - {mu0: 0, rank: 2, ndensity: 2, num_ms_combs: 1, mus: [0, 1], ns: [3, 5], ls: [0, 0], ms_combs: [0, 0], ctildes: [0.0071592421446924131, 1.5108769233139043]}
    - {mu0: 0, rank: 2, ndensity: 2, num_ms_combs: 2, mus: [0, 1], ns: [3, 5], ls: [1, 1], ms_combs: [0, 0, 1, -1], ctildes: [-0.053677172289763583, 0.24087632783589613, 0.10735434457952714, -0.48175265567179215]}
    - {mu0: 0, rank: 2, ndensity: 2, num_ms_combs: 1, mus: [0, 1], ns: [3, 6], ls: [0, 0], ms_combs: [0, 0], ctildes: [-0.22314499696090284, 0.37184422636334397]}
    - {mu0: 0, rank: 2, ndensity: 2, num_ms_combs: 1, mus: [0, 1], ns: [4, 1], ls: [0, 0], ms_combs: [0, 0], ctildes: [-0.85267915804733851, 0.18881930929260718]}
    - {mu0: 0, rank: 2, ndensity: 2, num_ms_combs: 2, mus: [0, 1], ns: [4, 1], ls: [1, 1], ms_combs: [0, 0, 1, -1], ctildes: [-0.47197102340256414, 0.01403816820522634, 0.94394204680512817, -0.028076336410452676]}
    - {mu0: 0, rank: 2, ndensity: 2, num_ms_combs: 3, mus: [0, 1], ns: [4, 1], ls: [2, 2], ms_combs: [0, 0, 1, -1, 2, -2], ctildes: [-0.078002381789136419, 0.48418064951445894, 0.15600476357827284, -0.96836129902891799, -0.15600476357827289, 0.96836129902891821]}
    - {mu0: 0, rank: 2, ndensity: 2, num_ms_combs: 1, mus: [0, 1], ns: [4, 2], ls: [0, 0], ms_combs: [0, 0], ctildes: [-0.035076088337986526, 0.20911369887303649]}
    - {mu0: 0, rank: 2, ndensity: 2, num_ms_combs: 2, mus: [0, 1], ns: [4, 2], ls: [1, 1], ms_combs: [0, 0, 1, -1], ctildes: [0.39600608627263845, 0.19050123215963685, -0.79201217254527678, -0.38100246431927359]}
    - {mu0: 0, rank: 2, ndensity: 2, num_ms_combs: 3, mus: [0, 1], ns: [4, 2], ls: [2, 2], ms_combs: [0, 0, 1, -1, 2, -2], ctildes: [-0.027581365545495697, -0.18349253980924565, 0.055162731090991401, 0.36698507961849136, -0.055162731090991415, -0.36698507961849147]}
    - {mu0: 0, rank: 2, ndensity: 2, num_ms_combs: 1, mus: [0, 1], ns: [4, 3], ls: [0, 0], ms_combs: [0, 0], ctildes: [-0.12426927344448435, -0.88073634676852441]}
    - {mu0: 0, rank: 2, ndensity: 2, num_ms_combs: 2, mus: [0, 1], ns: [4, 3], ls: [1, 1], ms_combs: [0, 0, 1, -1], ctildes: [-0.14786189070383057, 0.53979783148584659, 0.29572378140766109, -1.079595662971693]}
    - {mu0: 0, rank: 2, ndensity: 2, num_ms_combs: 1, mus: [0, 1], ns: [4, 4], ls: [0, 0], ms_combs: [0, 0], ctildes: [-0.8030779627323954, -0.060427994462695624]}
    - {mu0: 0, rank: 2, ndensity: 2, num_ms_combs: 2, mus: [0, 1], ns: [4, 4], ls: [1, 1], ms_combs: [0, 0, 1, -1], ctildes: [0.19734031128389226, -0.22107959959417361, -0.39468062256778447, 0.44215919918834717]}
    - {mu0: 0, rank: 2, ndensity: 2, num_ms_combs: 1, mus: [0, 1], ns: [4, 5], ls: [0, 0], ms_combs: [0, 0], ctildes: [0.43235903041572865, 0.37650843514495486]}
    - {mu0: 0, rank: 2, ndensity: 2, num_ms_combs: 1, mus: [0, 1], ns: [4, 6], ls: [0, 0], ms_combs: [0, 0], ctildes: [-0.15417039723164627, 0.047900475861178585]}
    - {mu0: 0, rank: 2, ndensity: 2, num_ms_combs: 1, mus: [0, 1], ns: [5, 1], ls: [0, 0], ms_combs: [0, 0], ctildes: [-0.055272464371524589, -0.068804887495511363]}
    - {mu0: 0, rank: 2, ndensity: 2, num_ms_combs: 2, mus: [0, 1], ns: [5, 1], ls: [1, 1], ms_combs: [0, 0, 1, -1], ctildes: [0.064574297891976898, 0.21609736664532295, -0.12914859578395377, -0.43219473329064584]}
    - {mu0: 0, rank: 2, ndensity: 2, num_ms_combs: 3, mus: [0, 1], ns: [5, 1], ls: [2, 2], ms_combs: [0, 0, 1, -1, 2, -2], ctildes: [0.03143126943549987, 0.11929785424474573, -0.062862538870999754, -0.23859570848949149, 0.062862538870999768, 0.23859570848949155]}
    - {mu0: 0, rank: 2, ndensity: 2, num_ms_combs: 1, mus: [0, 1], ns: [5, 2], ls: [0, 0], ms_combs: [0, 0], ctildes: [-0.017591066424455147, -0.026011982439539109]}
    - {mu0: 0, rank: 2, ndensity: 2, num_ms_combs: 2, mus: [0, 1], ns: [5, 2], ls: [1, 1], ms_combs: [0, 0, 1, -1], ctildes: [-0.18256127097145422, 0.0034036283697503403, 0.36512254194290839, -0.0068072567395006788]}
    - {mu0: 0, rank: 2, ndensity: 2, num_ms_combs: 1, mus: [0, 1], ns: [5, 3], ls: [0, 0], ms_combs: [0, 0], ctildes: [0.52944677369368276, 0.18123351377968988]}
    - {mu0: 0, rank: 2, ndensity: 2, num_ms_combs: 2, mus: [0, 1], ns: [5, 3], ls: [1, 1], ms_combs: [0, 0, 1, -1], ctildes: [0.12697804140928831, -0.53198549792311234, -0.25395608281857657, 1.0639709958462247]}
    - {mu0: 0, rank: 2, ndensity: 2, num_ms_combs: 1, mus: [0, 1], ns: [5, 4], ls: [0, 0], ms_combs: [0, 0], ctildes: [0.16857184759233815, 0.11803689471696455]}
    - {mu0: 0, rank: 2, ndensity: 2, num_ms_combs: 1, mus: [0, 1], ns: [5, 5], ls: [0, 0], ms_combs: [0, 0], ctildes: [-0.11018167097275619, -0.19085742543606116]}
    - {mu0: 0, rank: 2, ndensity: 2, num_ms_combs: 1, mus: [0, 1], ns: [6, 1], ls: [0, 0], ms_combs: [0, 0], ctildes: [0.91752531348260513, -0.426514490697047]}
    - {mu0: 0, rank: 2, ndensity: 2, num_ms_combs: 2, mus: [0, 1], ns: [6, 1], ls: [1, 1], ms_combs: [0, 0, 1, -1], ctildes: [0.12014554190999677, -0.32396941338131968, -0.24029108381999351, 0.64793882676263925]}
    - {mu0: 0, rank: 2, ndensity: 2, num_ms_combs: 1, mus: [0, 1], ns: [6, 2], ls: [0, 0], ms_combs: [0, 0], ctildes: [0.052297782199372742, 0.16942620433809591]}
    - {mu0: 0, rank: 2, ndensity: 2, num_ms_combs: 2, mus: [0, 1], ns: [6, 2], ls: [1, 1], ms_combs: [0, 0, 1, -1], ctildes: [0.0087233661913175085, 0.062932935874671886, -0.017446732382635013, -0.12586587174934374]}
    - {mu0: 0, rank: 2, ndensity: 2, num_ms_combs: 1, mus: [0, 1], ns: [6, 3], ls: [0, 0], ms_combs: [0, 0], ctildes: [-0.14804785364345244, -0.24435315219255335]}
    - {mu0: 0, rank: 2, ndensity: 2, num_ms_combs: 1, mus: [0, 1], ns: [6, 4], ls: [0, 0], ms_combs: [0, 0], ctildes: [0.044194145621428274, -0.096389575963802529]}
    - {mu0: 0, rank: 2, ndensity: 2, num_ms_combs: 1, mus: [1, 1], ns: [1, 1], ls: [0, 0], ms_combs: [0, 0], ctildes: [0.81710500587826485, -0.05036199030794683]}
    - {mu0: 0, rank: 2, ndensity: 2, num_ms_combs: 2, mus: [1, 1], ns: [1, 1], ls: [1, 1], ms_combs: [0, 0, 1, -1], ctildes: [0.062746144283383209, -0.8261843819474608, -0.12549228856676639, 1.6523687638949212]}
    - {mu0: 0, rank: 2, ndensity: 2, num_ms_combs: 3, mus: [1, 1], ns: [1, 1], ls: [2, 2], ms_combs: [0, 0, 1, -1, 2, -2], ctildes: [0.21759487073905151, -0.63204510259048696, -0.43518974147810308, 1.2640902051809741, 0.43518974147810319, -1.2640902051809744]}
    - {mu0: 0, rank: 2, ndensity: 2, num_ms_combs: 4, mus: [1, 1], ns: [1, 1], ls: [3, 3], ms_combs: [0, 0, 1, -1, 2, -2, 3, -3], ctildes: [0.15793456040784412, -0.24959471415139281, -0.31586912081568824, 0.49918942830278562, 0.31586912081568819, -0.49918942830278556, -0.31586912081568819, 0.49918942830278556]}
    - {mu0: 0, rank: 2, ndensity: 2, num_ms_combs: 1, mus: [1, 1], ns: [1, 2], ls: [0, 0], ms_combs: [0, 0], ctildes: [1.9014104340248947, 2.7724915856862933]}
    - {mu0: 0, rank: 2, ndensity: 2, num_ms_combs: 2, mus: [1, 1], ns: [1, 2], ls: [1, 1], ms_combs: [0, 0, 1, -1], ctildes: [0.086240191739024294, 0.19961119970148725, -0.17248038347804853, -0.39922239940297438]}
    - {mu0: 0, rank: 2, ndensity: 2, num_ms_combs: 3, mus: [1, 1], ns: [1, 2], ls: [2, 2], ms_combs: [0, 0, 1, -1, 2, -2], ctildes: [0.047625700438308341, 0.16131692363172626, -0.095251400876616696, -0.32263384726345257, 0.09525140087661671, 0.32263384726345262]}
    - {mu0: 0, rank: 2, ndensity: 2, num_ms_combs: 4, mus: [1, 1], ns: [1, 2], ls: [3, 3], ms_combs: [0, 0, 1, -1, 2, -2, 3, -3], ctildes: [-0.30820698106413164, -0.090458359822314371, 0.61641396212826327, 0.18091671964462874, -0.61641396212826327, -0.18091671964462872, 0.61641396212826327, 0.18091671964462872]}
    - {mu0: 0, rank: 2, ndensity: 2, num_ms_combs: 1, mus: [1, 1], ns: [1, 3], ls: [0, 0], ms_combs: [0, 0], ctildes: [1.7168863332813611, 0.14574851998475161]}
    - {mu0: 0, rank: 2, ndensity: 2, num_ms_combs: 2, mus: [1, 1], ns: [1, 3], ls: [1, 1], ms_combs: [0, 0, 1, -1], ctildes: [-0.1521838363372881, 0.238217093082253, 0.3043676726745761, -0.47643418616450595]}
    - {mu0: 0, rank: 2, ndensity: 2, num_ms_combs: 3, mus: [1, 1], ns: [1, 3], ls: [2, 2], ms_combs: [0, 0, 1, -1, 2, -2], ctildes: [0.50969751896715665, 0.16722721003391103, -1.0193950379343135, -0.33445442006782211, 1.0193950379343137, 0.33445442006782217]}
    - {mu0: 0, rank: 2, ndensity: 2, num_ms_combs: 4, mus: [1, 1], ns: [1, 3], ls: [3, 3], ms_combs: [0, 0, 1, -1, 2, -2, 3, -3], ctildes: [0.055480461743889348, -0.090735293966135319, -0.1109609234877787, 0.18147058793227064, 0.11096092348777868, -0.18147058793227061, -0.11096092348777868, 0.18147058793227061]}
    - {mu0: 0, rank: 2, ndensity: 2, num_ms_combs: 1, mus: [1, 1], ns: [1, 4], ls: [0, 0], ms_combs: [0, 0], ctildes: [-1.0578528080375904, 0.24096578468759192]}
    - {mu0: 0, rank: 2, ndensity: 2, num_ms_combs: 2, mus: [1, 1], ns: [1, 4], ls: [1, 1], ms_combs: [0, 0, 1, -1], ctildes: [-0.18872359646869652, 0.56068117568712816, 0.37744719293739298, -1.1213623513742563]}
    - {mu0: 0, rank: 2, ndensity: 2, num_ms_combs: 3, mus: [1, 1], ns: [1, 4], ls: [2, 2], ms_combs: [0, 0, 1, -1, 2, -2], ctildes: [-0.0031549088309407534, -0.27239126729240759, 0.0063098176618815076, 0.54478253458481518, -0.0063098176618815094, -0.5447825345848154]}
    - {mu0: 0, rank: 2, ndensity: 2, num_ms_combs: 1, mus: [1, 1], ns: [1, 5], ls: [0, 0], ms_combs: [0, 0], ctildes: [0.81623383497785695, 1.3448304886066311]}
    - {mu0: 0, rank: 2, ndensity: 2, num_ms_combs: 2, mus: [1, 1], ns: [1, 5], ls: [1, 1], ms_combs: [0, 0, 1, -1], ctildes: [-0.19394782090344082, -0.19340290505359986, 0.38789564180688152, 0.38680581010719961]}
    - {mu0: 0, rank: 2, ndensity: 2, num_ms_combs: 3, mus: [1, 1], ns: [1, 5], ls: [2, 2], ms_combs: [0, 0, 1, -1, 2, -2], ctildes: [0.17825209258359415, -0.1560518921745159, -0.35650418516718835, 0.3121037843490318, 0.35650418516718846, -0.31210378434903191]}
    - {mu0: 0, rank: 2, ndensity: 2, num_ms_combs: 1, mus: [1, 1], ns: [1, 6], ls: [0, 0], ms_combs: [0, 0], ctildes: [-0.94337574985730388, 0.23219402060085534]}
    - {mu0: 0, rank: 2, ndensity: 2, num_ms_combs: 2, mus: [1, 1], ns: [1, 6], ls: [1, 1], ms_combs: [0, 0, 1, -1], ctildes: [0.16676255825069913, -0.12159953111757631, -0.33352511650139821, 0.24319906223515256]}
    - {mu0: 0, rank: 2, ndensity: 2, num_ms_combs: 1, mus: [1, 1], ns: [2, 2], ls: [0, 0], ms_combs: [0, 0], ctildes: [1.0314005538662312, -0.43889868219684369]}
    - {mu0: 0, rank: 2, ndensity: 2, num_ms_combs: 2, mus: [1, 1], ns: [2, 2], ls: [1, 1], ms_combs: [0, 0, 1, -1], ctildes: [0.80563834838824899, 0.20323725047712099, -1.6112766967764978, -0.40647450095424192]}
    - {mu0: 0, rank: 2, ndensity: 2, num_ms_combs: 3, mus: [1, 1], ns: [2, 2], ls: [2, 2], ms_combs: [0, 0, 1, -1, 2, -2], ctildes: [0.42971564751161834, -0.19963799245797867, -0.85943129502323679, 0.39927598491595739, 0.85943129502323701, -0.3992759849159575]}
    - {mu0: 0, rank: 2, ndensity: 2, num_ms_combs: 4, mus: [1, 1], ns: [2, 2], ls: [3, 3], ms_combs: [0, 0, 1, -1, 2, -2, 3, -3], ctildes: [0.20668956520168388, -0.11212057674731937, -0.41337913040336777, 0.22424115349463875, 0.41337913040336771, -0.22424115349463872, -0.41337913040336771, 0.22424115349463872]}
    - {mu0: 0, rank: 2, ndensity: 2, num_ms_combs: 1, mus: [1, 1], ns: [2, 3], ls: [0, 0], ms_combs: [0, 0], ctildes: [2.9945404064136341, 0.26567593395335415]}
    - {mu0: 0, rank: 2, ndensity: 2, num_ms_combs: 2, mus: [1, 1], ns: [2, 3], ls: [1, 1], ms_combs: [0, 0, 1, -1], ctildes: [-0.68259218548614964, -0.04625240058665811, 1.3651843709722991, 0.092504801173316206]}
    - {mu0: 0, rank: 2, ndensity: 2, num_ms_combs: 3, mus: [1, 1], ns: [2, 3], ls: [2, 2], ms_combs: [0, 0, 1, -1, 2, -2], ctildes: [-0.75148578024685819, 0.091471120085633115, 1.5029715604937164, -0.18294224017126623, -1.5029715604937168, 0.18294224017126628]}
    - {mu0: 0, rank: 2, ndensity: 2, num_ms_combs: 1, mus: [1, 1], ns: [2, 4], ls: [0, 0], ms_combs: [0, 0], ctildes: [-0.08623507700630878, 0.67109809779750429]}
    - {mu0: 0, rank: 2, ndensity: 2, num_ms_combs: 2, mus: [1, 1], ns: [2, 4], ls: [1, 1], ms_combs: [0, 0, 1, -1], ctildes: [0.42470460145336936, -0.048609670011930707, -0.84940920290673849, 0.0972193400238614]}
    - {mu0: 0, rank: 2, ndensity: 2, num_ms_combs: 3, mus: [1, 1], ns: [2, 4], ls: [2, 2], ms_combs: [0, 0, 1, -1, 2, -2], ctildes: [0.044604049658785519, 0.030206085590903129, -0.089208099317571052, -0.060412171181806265, 0.089208099317571066, 0.060412171181806286]}
    - {mu0: 0, rank: 2, ndensity: 2, num_ms_combs: 1, mus: [1, 1], ns: [2, 5], ls: [0, 0], ms_combs: [0, 0], ctildes: [0.37721877424687655, -0.98498859505966396]}
    - {mu0: 0, rank: 2, ndensity: 2, num_ms_combs: 2, mus: [1, 1], ns: [2, 5], ls: [1, 1], ms_combs: [0, 0, 1, -1], ctildes: [-0.3169962244992402, 0.033447132113449872, 0.63399244899848028, -0.06689426422689973]}
    - {mu0: 0, rank: 2, ndensity: 2, num_ms_combs: 1, mus: [1, 1], ns: [2, 6], ls: [0, 0], ms_combs: [0, 0], ctildes: [0.43119768902072531, -0.032134169833668666]}
    - {mu0: 0, rank: 2, ndensity: 2, num_ms_combs: 2, mus: [1, 1], ns: [2, 6], ls: [1, 1], ms_combs: [0, 0, 1, -1], ctildes: [-0.11279058202924747, 0.045626250456179018, 0.22558116405849488, -0.091252500912358023]}
    - {mu0: 0, rank: 2, ndensity: 2, num_ms_combs: 1, mus: [1, 1], ns: [3, 3], ls: [0, 0], ms_combs: [0, 0], ctildes: [2.8310952312266089, 0.65210968215363774]}
    - {mu0: 0, rank: 2, ndensity: 2, num_ms_combs: 2, mus: [1, 1], ns: [3, 3], ls: [1, 1], ms_combs: [0, 0, 1, -1], ctildes: [0.037241737425033984, 0.21193544917985774, -0.074483474850067954, -0.42387089835971542]}
    - {mu0: 0, rank: 2, ndensity: 2, num_ms_combs: 3, mus: [1, 1], ns: [3, 3], ls: [2, 2], ms_combs: [0, 0, 1, -1, 2, -2], ctildes: [0.29157379903039965, -0.036837510019744391, -0.58314759806079941, 0.073675020039488795, 0.58314759806079952, -0.073675020039488809]}
    - {mu0: 0, rank: 2, ndensity: 2, num_ms_combs: 1, mus: [1, 1], ns: [3, 4], ls: [0, 0], ms_combs: [0, 0], ctildes: [-0.60768983114343511, -1.8871239599948766]}
    - {mu0: 0, rank: 2, ndensity: 2, num_ms_combs: 2, mus: [1, 1], ns: [3, 4], ls: [1, 1], ms_combs: [0, 0, 1, -1], ctildes: [-0.11202989132329433, -0.2244074813716018, 0.2240597826465886, 0.44881496274320348]}
    - {mu0: 0, rank: 2, ndensity: 2, num_ms_combs: 1, mus: [1, 1], ns: [3, 5], ls: [0, 0], ms_combs: [0, 0], ctildes: [0.54360995259239742, -0.060836564096901698]}
    - {mu0: 0, rank: 2, ndensity: 2, num_ms_combs: 2, mus: [1, 1], ns: [3, 5], ls: [1, 1], ms_combs: [0, 0, 1, -1], ctildes: [0.040419025905956557, 0.097955170329651425, -0.0808380518119131, -0.19591034065930282]}
    - {mu0: 0, rank: 2, ndensity: 2, num_ms_combs: 1, mus: [1, 1], ns: [3, 6], ls: [0, 0], ms_combs: [0, 0], ctildes: [-0.48250305792614462, 0.13786427607724611]}
    - {mu0: 0, rank: 2, ndensity: 2, num_ms_combs: 1, mus: [1, 1], ns: [4, 4], ls: [0, 0], ms_combs: [0, 0], ctildes: [-0.15309535858371445, -0.76092925462318128]}
    - {mu0: 0, rank: 2, ndensity: 2, num_ms_combs: 2, mus: [1, 1], ns: [4, 4], ls: [1, 1], ms_combs: [0, 0, 1, -1], ctildes: [0.19883006599563929, -0.21630927338072045, -0.39766013199127853, 0.43261854676144079]}
    - {mu0: 0, rank: 2, ndensity: 2, num_ms_combs: 1, mus: [1, 1], ns: [4, 5], ls: [0, 0], ms_combs: [0, 0], ctildes: [0.14964156323066974, 0.41303983467454819]}
    - {mu0: 0, rank: 3, ndensity: 2, num_ms_combs: 1, mus: [0, 0, 0], ns: [1, 1, 1], ls: [0, 0, 0], ms_combs: [0, 0, 0], ctildes: [-1.077110321680812, -0.92892399748650567]}
    - {mu0: 0, rank: 3, ndensity: 2, num_ms_combs: 2, mus: [0, 0, 0], ns: [1, 1, 1], ls: [0, 1, 1], ms_combs: [0, 0, 0, 0, 1, -1], ctildes: [-0.62231791671338743, 0.11929111308573528, 1.2446358334267744, -0.23858222617147054]}
    - {mu0: 0, rank: 3, ndensity: 2, num_ms_combs: 3, mus: [0, 0, 0], ns: [1, 1, 1], ls: [0, 2, 2], ms_combs: [0, 0, 0, 0, 1, -1, 0, 2, -2], ctildes: [0.13183570761013974, -0.14480721693775578, -0.26367141522027954, 0.28961443387551161, 0.26367141522027959, -0.28961443387551167]}
    - {mu0: 0, rank: 3, ndensity: 2, num_ms_combs: 4, mus: [0, 0, 0], ns: [1, 1, 1], ls: [0, 3, 3], ms_combs: [0, 0, 0, 0, 1, -1, 0, 2, -2, 0, 3, -3], ctildes: [0.10120295232391484, 0.06378265899338266, -0.20240590464782968, -0.12756531798676532, 0.20240590464782965, 0.12756531798676532, -0.20240590464782965, -0.12756531798676532]}
    - {mu0: 0, rank: 3, ndensity: 2, num_ms_combs: 4, mus: [0, 0, 0], ns: [1, 1, 1], ls: [1, 1, 2], ms_combs: [-1, 1, 0, 0, 0, 0, 0, 1, -1, 1, 1, -2], ctildes: [-0.009650250733519097, -0.3844495996363122, -0.0096502507335190953, -0.38444959963631214, 0.033429449152467809, 1.3317724790392123, -0.023638190187040876, -0.94170535092624641]}
    - {mu0: 0, rank: 3, ndensity: 2, num_ms_combs: 8, mus: [0, 0, 0], ns: [1, 1, 1], ls: [1, 2, 3], ms_combs: [0, 0, 0, 0, 1, -1, 0, 2, -2, 1, -2, 1, 1, -1, 0, 1, 0, -1, 1, 1, -2, 1, 2, -3], ctildes: [-0.017964749437065324, 0.086911604103255422, 0.033874656398042942, -0.16388209233389994, -0.026780267293352755, 0.1295601698722858, 0.011976499624710214, -0.057941069402170274, -0.020743905846827684, 0.10035687604943339, 0.029336312985174254, -0.14192605518650436, -0.03787301721023608, 0.18322574937674865, 0.046384783592362033, -0.22440479685605355]}
    - {mu0: 0, rank: 3, ndensity: 2, num_ms_combs: 5, mus: [0, 0, 0], ns: [1, 1, 1], ls: [2, 2, 2], ms_combs: [-2, 0, 2, -2, 1, 1, -1, -1, 2, -1, 0, 1, 0, 0, 0], ctildes: [0.21708300261340208, -0.065866817768436836, -0.1772475294113674, 0.053780031504518266, -0.0886237647056837, 0.026890015752259133, 0.10854150130670101, -0.032933408884218411, -0.036180500435567003, 0.010977802961406135]}
    - {mu0: 0, rank: 3, ndensity: 2, num_ms_combs: 9, mus: [0, 0, 0], ns: [1, 1, 1], ls: [2, 3, 3], ms_combs: [0, -3, 3, 0, -1, 1, 0, 0, 0, 1, -3, 2, 1, -2, 1, 1, -1, 0, 2, -3, 1, 2, -2, 0, 2, -1, -1], ctildes: [-0.12763885792915144, -0.069168817185615836, 0.076583314757490847, 0.041501290311369496, -0.051055543171660583, -0.027667526874246336, 0.25527771585830289, 0.13833763437123167, -0.19773726843541525, -0.10715587081470221, 0.072203441587687447, 0.039127791742881252, -0.16145180359950445, -0.087492402146537432, 0.22832733032001656, 0.12373294172023416, -0.12506002931120633, -0.067771323286644328]}
    - {mu0: 0, rank: 3, ndensity: 2, num_ms_combs: 1, mus: [0, 0, 0], ns: [1, 1, 2], ls: [0, 0, 0], ms_combs: [0, 0, 0], ctildes: [0.17577646727077773, -0.13732605838723141]}
    - {mu0: 0, rank: 3, ndensity: 2, num_ms_combs: 2, mus: [0, 0, 0], ns: [1, 1, 2], ls: [0, 1, 1], ms_combs: [0, 0, 0, 0, 1, -1], ctildes: [-0.0068300424842353095, 0.052462904906458635, 0.013660084968470617, -0.10492580981291724]}
    - {mu0: 0, rank: 3, ndensity: 2, num_ms_combs: 3, mus: [0, 0, 0], ns: [1, 1, 2], ls: [0, 2, 2], ms_combs: [0, 0, 0, 0, 1, -1, 0, 2, -2], ctildes: [0.24736814566034451, -0.089730216476185801, -0.49473629132068908, 0.17946043295237163, 0.49473629132068919, -0.17946043295237166]}
    - {mu0: 0, rank: 3, ndensity: 2, num_ms_combs: 4, mus: [0, 0, 0], ns: [1, 1, 2], ls: [0, 3, 3], ms_combs: [0, 0, 0, 0, 1, -1, 0, 2, -2, 0, 3, -3], ctildes: [0.1341996760854543, -0.25069585740500616, -0.2683993521709086, 0.50139171481001232, 0.26839935217090855, -0.50139171481001232, -0.26839935217090855, 0.50139171481001232]}
    - {mu0: 0, rank: 3, ndensity: 2, num_ms_combs: 2, mus: [0, 0, 0], ns: [1, 1, 2], ls: [1, 1, 0], ms_combs: [0, 0, 0, 1, -1, 0], ctildes: [0.40276005165264361, -0.037961509146513639, -0.80552010330528701, 0.075923018293027264]}
    - {mu0: 0, rank: 3, ndensity: 2, num_ms_combs: 4, mus: [0, 0, 0], ns: [1, 1, 2], ls: [1, 1, 2], ms_combs: [-1, 1, 0, 0, 0, 0, 0, 1, -1, 1, 1, -2], ctildes: [0.10864858787327225, 0.31027976195923518, 0.10864858787327222, 0.31027976195923512, -0.37636974873423867, -1.0748406245475448, 0.26613360156345722, 0.76002709431235294]}
    - {mu0: 0, rank: 3, ndensity: 2, num_ms_combs: 5, mus: [0, 0, 0], ns: [1, 1, 2], ls: [1, 2, 1], ms_combs: [0, 0, 0, 0, 1, -1, 1, -2, 1, 1, -1, 0, 1, 0, -1], ctildes: [-0.31120718346864035, -0.41598570332885615, 0.53902665344809431, 0.72050837338785267, -0.76229880378687709, -1.0189527134484793, 0.53902665344809431, 0.72050837338785267, -0.31120718346864029, -0.41598570332885604]}
    - {mu0: 0, rank: 3, ndensity: 2, num_ms_combs: 8, mus: [0, 0, 0], ns: [1, 1, 2], ls: [1, 2, 3], ms_combs: [0, 0, 0, 0, 1, -1, 0, 2, -2, 1, -2, 1, 1, -1, 0, 1, 0, -1, 1, 1, -2, 1, 2, -3], ctildes: [-0.080957124670797659, 0.11968755674654007, 0.15265421824022871, -0.22568502133100851, -0.12068375601788585, 0.17841967529741803, 0.053971416447198425, -0.079791704497693364, -0.093481235443006225, 0.138203286212527, 0.13220243099089188, -0.19544896172628629, -0.17067260451861979, 0.25232352459981244, 0.20903039707122453, -0.30903194268506978]}
    - {mu0: 0, rank: 3, ndensity: 2, num_ms_combs: 8, mus: [0, 0, 0], ns: [1, 1, 2], ls: [1, 3, 2], ms_combs: [0, 0, 0, 0, 1, -1, 0, 2, -2, 1, -3, 2, 1, -2, 1, 1, -1, 0, 1, 0, -1, 1, 1, -2], ctildes: [0.10536910737087744, 0.0026910311887471004, -0.19868589426538905, -0.0050742570718601901, 0.15707499120650417, 0.0040115524450737251, -0.27206186536809984, -0.0069482126520948482, 0.22213758287387278, 0.0056731918739942105, -0.17206703180745583, -0.0043944355295637647, 0.1216697650096934, 0.0031073351624416349, -0.070246071580585004, -0.0017940207924980677]}
    - {mu0: 0, rank: 3, ndensity: 2, num_ms_combs: 3, mus: [0, 0, 0], ns: [1, 1, 2], ls: [2, 2, 0], ms_combs: [0, 0, 0, 1, -1, 0, 2, -2, 0], ctildes: [0.2932448351859635, -0.031020819644789359, -0.58648967037192712, 0.062041639289578725, 0.58648967037192723, -0.062041639289578746]}
    - {mu0: 0, rank: 3, ndensity: 2, num_ms_combs: 8, mus: [0, 0, 0], ns: [1, 1, 2], ls: [2, 2, 2], ms_combs: [-2, 1, 1, -2, 2, 0, -1, 1, 0, -1, 2, -1, 0, 0, 0, 0, 1, -1, 0, 2, -2, 1, 1, -2], ctildes: [-0.16678135215375126, -0.16494429259204918, 0.1361764037960409, 0.13467645094495057, 0.068088201898020451, 0.067338225472475283, -0.16678135215375126, -0.16494429259204918, -0.068088201898020451, -0.067338225472475283, 0.1361764037960409, 0.13467645094495057, 0.27235280759208197, 0.2693529018899013, -0.16678135215375126, -0.16494429259204918]}
    - {mu0: 0, rank: 3, ndensity: 2, num_ms_combs: 8, mus: [0, 0, 0], ns: [1, 1, 2], ls: [2, 3, 1], ms_combs: [0, 0, 0, 0, 1, -1, 1, -2, 1, 1, -1, 0, 1, 0, -1, 2, -3, 1, 2, -2, 0, 2, -1, -1], ctildes: [0.20177768998431955, -0.098075097938359404, -0.329501587959383, 0.16015596428164458, 0.42538472090519636, -0.20676046081953317, -0.38047566101351804, 0.18493217818066326, 0.23299280725781538, -0.11324736839102138, -0.52098775529698171, 0.25322881399528485, 0.30079242076521129, -0.14620172392674738, -0.13451845998954631, 0.065383398625572908]}
    - {mu0: 0, rank: 3, ndensity: 2, num_ms_combs: 14, mus: [0, 0, 0], ns: [1, 1, 2], ls: [2, 3, 3], ms_combs: [0, 0, 0, 0, 1, -1, 0, 3, -3, 1, -3, 2, 1, -2, 1, 1, -1, 0, 1, 0, -1, 1, 1, -2, 1, 2, -3, 2, -3, 1, 2, -2, 0, 2, -1, -1, 2, 0, -2, 2, 1, -3], ctildes: [0.017199862092773615, 0.12488088068582381, -0.025799793139160414, -0.18732132102873567, 0.042999655231934032, 0.31220220171455948, -0.042999655231934032, -0.31220220171455948, 0.033307389721188227, 0.24183078557795554, -0.012162139121273658, -0.088304117573494115, -0.012162139121273669, -0.088304117573494198, 0.033307389721188234, 0.24183078557795556, -0.042999655231934032, -0.31220220171455948, 0.02719536982697747, 0.19745400958746673, -0.038460060843063595, -0.27924213830354261, 0.042130885773534174, 0.30589443630965529, -0.038460060843063588, -0.27924213830354255, 0.027195369826977466, 0.19745400958746667]}
    - {mu0: 0, rank: 3, ndensity: 2, num_ms_combs: 4, mus: [0, 0, 0], ns: [1, 1, 2], ls: [3, 3, 0], ms_combs: [0, 0, 0, 1, -1, 0, 2, -2, 0, 3, -3, 0], ctildes: [0.019394518549532648, -0.1082254061328545, -0.038789037099065296, 0.216450812265709, 0.038789037099065289, -0.21645081226570898, -0.038789037099065289, 0.21645081226570898]}
    - {mu0: 0, rank: 3, ndensity: 2, num_ms_combs: 12, mus: [0, 0, 0], ns: [1, 1, 2], ls: [3, 3, 2], ms_combs: [-3, 1, 2, -3, 2, 1, -3, 3, 0, -2, 1, 1, -2, 3, -1, -1, 1, 0, -1, 2, -1, -1, 3, -2, 0, 0, 0, 0, 1, -1, 0, 2, -2, 1, 1, -2], ctildes: [0.19321102414541494, 0.20480702517403171, -0.30549345267664946, -0.3238283401766916, 0.3054934526766494, 0.3238283401766916, 0.23663421091841338, 0.25083635370686336, -0.30549345267664946, -0.3238283401766916, -0.1832960716059896, -0.19429700410601491, 0.23663421091841338, 0.25083635370686336, 0.19321102414541494, 0.20480702517403171, 0.12219738107065978, 0.12953133607067663, -0.17281319359660044, -0.18318497222345828, -0.54648330149288293, -0.57928174534080723, 0.29932123152754853, 0.31728567907412325]}
    - {mu0: 0, rank: 3, ndensity: 2, num_ms_combs: 1, mus: [0, 0, 0], ns: [1, 1, 3], ls: [0, 0, 0], ms_combs: [0, 0, 0], ctildes: [0.05220076160827436, 0.15644763468292136]}
    - {mu0: 0, rank: 3, ndensity: 2, num_ms_combs: 2, mus: [0, 0, 0], ns: [1, 1, 3], ls: [0, 1, 1], ms_combs: [0, 0, 0, 0, 1, -1], ctildes: [-0.18436224456749681, 0.26687332991254037, 0.36872448913499356, -0.53374665982508063]}
    - {mu0: 0, rank: 3, ndensity: 2, num_ms_combs: 3, mus: [0, 0, 0], ns: [1, 1, 3], ls: [0, 2, 2], ms_combs: [0, 0, 0, 0, 1, -1, 0, 2, -2], ctildes: [0.20184692989656131, 0.2641563979485595, -0.40369385979312267, -0.52831279589711899, 0.40369385979312278, 0.52831279589711921]}
    - {mu0: 0, rank: 3, ndensity: 2, num_ms_combs: 4, mus: [0, 0, 0], ns: [1, 1, 3], ls: [0, 3, 3], ms_combs: [0, 0, 0, 0, 1, -1, 0, 2, -2, 0, 3, -3], ctildes: [-0.07299380636186191, -0.042855439395482725, 0.14598761272372382, 0.08571087879096545, -0.14598761272372379, -0.085710878790965436, 0.14598761272372379, 0.085710878790965436]}
    - {mu0: 0, rank: 3, ndensity: 2, num_ms_combs: 2, mus: [0, 0, 0], ns: [1, 1, 3], ls: [1, 1, 0], ms_combs: [0, 0, 0, 1, -1, 0], ctildes: [-0.060504178443320199, 0.041148801182068033, 0.12100835688664037, -0.082297602364136052]}
    - {mu0: 0, rank: 3, ndensity: 2, num_ms_combs: 4, mus: [0, 0, 0], ns: [1, 1, 3], ls: [1, 1, 2], ms_combs: [-1, 1, 0, 0, 0, 0, 0, 1, -1, 1, 1, -2], ctildes: [-0.072905257799037879, -0.20538578720846584, -0.072905257799037865, -0.20538578720846581, 0.25255122129368152, 0.71147723719518585, -0.17858068117370665, -0.50309037908058574]}
    - {mu0: 0, rank: 3, ndensity: 2, num_ms_combs: 5, mus: [0, 0, 0], ns: [1, 1, 3], ls: [1, 2, 1], ms_combs: [0, 0, 0, 0, 1, -1, 1, -2, 1, 1, -1, 0, 1, 0, -1], ctildes: [0.031742340121989891, 0.090248877058839869, -0.054979345842418564, -0.15631564039194792, 0.077752536540749165, 0.22106369865332831, -0.054979345842418564, -0.15631564039194792, 0.031742340121989884, 0.090248877058839855]}
    - {mu0: 0, rank: 3, ndensity: 2, num_ms_combs: 8, mus: [0, 0, 0], ns: [1, 1, 3], ls: [1, 2, 3], ms_combs: [0, 0, 0, 0, 1, -1, 0, 2, -2, 1, -2, 1, 1, -1, 0, 1, 0, -1, 1, 1, -2, 1, 2, -3], ctildes: [-0.0066329256350712625, 0.19587173455128365, 0.012507164521773272, -0.3693392846506241, -0.0098877817398135351, 0.2919883422183096, 0.0044219504233808417, -0.13058115636752243, -0.007659042801846325, 0.22617319733964505, 0.010831522205167103, -0.31985720312301247, -0.013983435038229337, 0.41293387361996997, 0.017126140347508832, -0.50573864393992085]}
    - {mu0: 0, rank: 3, ndensity: 2, num_ms_combs: 8, mus: [0, 0, 0], ns: [1, 1, 3], ls: [1, 3, 2], ms_combs: [0, 0, 0, 0, 1, -1, 0, 2, -2, 1, -3, 2, 1, -2, 1, 1, -1, 0, 1, 0, -1, 1, 1, -2], ctildes: [0.059860111649209687, 0.026527827562019192, -0.11287330898597342, -0.05002135135800314, 0.089234185858906662, 0.039545350482711648, -0.15455814367967055, -0.068494556239174997, 0.1261961958689872, 0.055925570981448215, -0.097751152991063336, -0.043319761007657949, 0.069120503148784554, 0.030631696767895521, -0.039906741099473141, -0.017685218374679471]}
    - {mu0: 0, rank: 3, ndensity: 2, num_ms_combs: 3, mus: [0, 0, 0], ns: [1, 1, 3], ls: [2, 2, 0], ms_combs: [0, 0, 0, 1, -1, 0, 2, -2, 0], ctildes: [0.38866315703555471, -0.014730078221132587, -0.77732631407110953, 0.029460156442265177, 0.77732631407110975, -0.029460156442265184]}
    - {mu0: 0, rank: 3, ndensity: 2, num_ms_combs: 8, mus: [0, 0, 0], ns: [1, 1, 3], ls: [2, 2, 2], ms_combs: [-2, 1, 1, -2, 2, 0, -1, 1, 0, -1, 2, -1, 0, 0, 0, 0, 1, -1, 0, 2, -2, 1, 1, -2], ctildes: [-0.31531328403761422, 0.49663324847302026, 0.25745221833780485, -0.40549934935325077, 0.12872610916890243, -0.20274967467662539, -0.31531328403761422, 0.49663324847302026, -0.12872610916890243, 0.20274967467662539, 0.25745221833780485, -0.40549934935325077, 0.51490443667561003, -0.81099869870650199, -0.31531328403761422, 0.49663324847302026]}
    - {mu0: 0, rank: 3, ndensity: 2, num_ms_combs: 8, mus: [0, 0, 0], ns: [1, 1, 3], ls: [2, 3, 1], ms_combs: [0, 0, 0, 0, 1, -1, 1, -2, 1, 1, -1, 0, 1, 0, -1, 2, -3, 1, 2, -2, 0, 2, -1, -1], ctildes: [0.024924605511666444, 0.027866482846441411, -0.040701710362496001, -0.045505775933201056, 0.052545682132034963, 0.058747704115178004, -0.046998286868530512, -0.052545543969432867, 0.028780455403211693, 0.032177442745522061, -0.06435505470498247, -0.071950949321094804, 0.037155408157634726, 0.041540899958983211, -0.01661640367444429, -0.018577655230960933]}
    - {mu0: 0, rank: 3, ndensity: 2, num_ms_combs: 4, mus: [0, 0, 0], ns: [1, 1, 3], ls: [3, 3, 0], ms_combs: [0, 0, 0, 1, -1, 0, 2, -2, 0, 3, -3, 0], ctildes: [0.12652488538876794, -0.1715212749204009, -0.25304977077753588, 0.34304254984080179, 0.25304977077753582, -0.34304254984080174, -0.25304977077753582, 0.34304254984080174]}
    - {mu0: 0, rank: 3, ndensity: 2, num_ms_combs: 1, mus: [0, 0, 0], ns: [1, 1, 4], ls: [0, 0, 0], ms_combs: [0, 0, 0], ctildes: [-0.18312140108290334, 0.35753636996973942]}
    - {mu0: 0, rank: 3, ndensity: 2, num_ms_combs: 2, mus: [0, 0, 0], ns: [1, 1, 4], ls: [0, 1, 1], ms_combs: [0, 0, 0, 0, 1, -1], ctildes: [0.13599779262550002, -0.42867717159679319, -0.27199558525099998, 0.85735434319358617]}
    - {mu0: 0, rank: 3, ndensity: 2, num_ms_combs: 3, mus: [0, 0, 0], ns: [1, 1, 4], ls: [0, 2, 2], ms_combs: [0, 0, 0, 0, 1, -1, 0, 2, -2], ctildes: [0.054048997484998626, -0.15069946562700115, -0.10809799496999727, 0.3013989312540023, 0.10809799496999729, -0.30139893125400241]}
    - {mu0: 0, rank: 3, ndensity: 2, num_ms_combs: 4, mus: [0, 0, 0], ns: [1, 1, 4], ls: [0, 3, 3], ms_combs: [0, 0, 0, 0, 1, -1, 0, 2, -2, 0, 3, -3], ctildes: [-0.08784187148469888, 0.016778953640297502, 0.17568374296939776, -0.033557907280595003, -0.17568374296939773, 0.033557907280594997, 0.17568374296939773, -0.033557907280594997]}
    - {mu0: 0, rank: 3, ndensity: 2, num_ms_combs: 2, mus: [0, 0, 0], ns: [1, 1, 4], ls: [1, 1, 0], ms_combs: [0, 0, 0, 1, -1, 0], ctildes: [-0.054178482451654353, 0.32176503800672113, 0.10835696490330869, -0.64353007601344214]}
    - {mu0: 0, rank: 3, ndensity: 2, num_ms_combs: 4, mus: [0, 0, 0], ns: [1, 1, 4], ls: [1, 1, 2], ms_combs: [-1, 1, 0, 0, 0, 0, 0, 1, -1, 1, 1, -2], ctildes: [-0.12375424929724084, 0.26138776200215458, -0.12375424929724081, 0.26138776200215458, 0.42869729487073238, -0.90547376852890682, -0.30313476427942382, 0.64026664191332838]}
    - {mu0: 0, rank: 3, ndensity: 2, num_ms_combs: 5, mus: [0, 0, 0], ns: [1, 1, 4], ls: [1, 2, 1], ms_combs: [0, 0, 0, 0, 1, -1, 1, -2, 1, 1, -1, 0, 1, 0, -1], ctildes: [-0.14190269391825489, 0.054802928455572636, 0.24578267559731259, -0.094921456488613998, -0.34758919322606618, 0.13423921112640552, 0.24578267559731259, -0.094921456488613998, -0.14190269391825486, 0.054802928455572622]}
    - {mu0: 0, rank: 3, ndensity: 2, num_ms_combs: 8, mus: [0, 0, 0], ns: [1, 1, 4], ls: [1, 2, 3], ms_combs: [0, 0, 0, 0, 1, -1, 0, 2, -2, 1, -2, 1, 1, -1, 0, 1, 0, -1, 1, 1, -2, 1, 2, -3], ctildes: [-0.048544658627966718, 0.077445706903566197, 0.091536686149923482, -0.14603302540079327, -0.07236610442443682, 0.11544924346793248, 0.03236310575197781, -0.051630471269044124, -0.056054543453150141, 0.089426599456709596, 0.079273095584076927, -0.12646830978858517, -0.10234112633314617, 0.16326988587806354, 0.12534176960895949, -0.19996395538184839]}
    - {mu0: 0, rank: 3, ndensity: 2, num_ms_combs: 8, mus: [0, 0, 0], ns: [1, 1, 4], ls: [1, 3, 2], ms_combs: [0, 0, 0, 0, 1, -1, 0, 2, -2, 1, -3, 2, 1, -2, 1, 1, -1, 0, 1, 0, -1, 1, 1, -2], ctildes: [-0.12211878692348209, 0.067413768060004986, 0.23026939291698481, -0.12711662010817767, -0.18204393926047904, 0.10049451200105025, 0.31530935200913229, -0.17406160066765927, -0.25744900784999331, 0.14212070181595096, 0.19941914398012933, -0.11008622225689767, -0.14101062900676592, 0.077842714273061775, 0.081412524615654777, -0.044942512040003345]}
    - {mu0: 0, rank: 3, ndensity: 2, num_ms_combs: 3, mus: [0, 0, 0], ns: [1, 1, 4], ls: [2, 2, 0], ms_combs: [0, 0, 0, 1, -1, 0, 2, -2, 0], ctildes: [-0.23019368641039212, 0.043409470750444705, 0.46038737282078429, -0.086818941500889424, -0.4603873728207844, 0.086818941500889438]}
    - {mu0: 0, rank: 3, ndensity: 2, num_ms_combs: 8, mus: [0, 0, 0], ns: [1, 1, 4], ls: [2, 2, 2], ms_combs: [-2, 1, 1, -2, 2, 0, -1, 1, 0, -1, 2, -1, 0, 0, 0, 0, 1, -1, 0, 2, -2, 1, 1, -2], ctildes: [-0.037725026824145212, 0.30247715549146692, 0.030802355417321309, -0.24697156326752684, 0.015401177708660655, -0.12348578163376342, -0.037725026824145212, 0.30247715549146692, -0.015401177708660655, 0.12348578163376342, 0.030802355417321309, -0.24697156326752684, 0.061604710834642661, -0.49394312653505396, -0.037725026824145212, 0.30247715549146692]}
    - {mu0: 0, rank: 3, ndensity: 2, num_ms_combs: 8, mus: [0, 0, 0], ns: [1, 1, 4], ls: [2, 3, 1], ms_combs: [0, 0, 0, 0, 1, -1, 1, -2, 1, 1, -1, 0, 1, 0, -1, 2, -3, 1, 2, -2, 0, 2, -1, -1], ctildes: [-0.087530398959088235, 0.26268972971068966, 0.14293654295467059, -0.42897053230721299, -0.18453028347596681, 0.5537985758798557, 0.16504890310382722, -0.49533250460397316, -0.1010713988026098, 0.30332797232363329, 0.22600251830362642, -0.67826196559281893, -0.13048261478013207, 0.39159472841609877, 0.058353599306058795, -0.17512648647379303]}
    - {mu0: 0, rank: 3, ndensity: 2, num_ms_combs: 4, mus: [0, 0, 0], ns: [1, 1, 4], ls: [3, 3, 0], ms_combs: [0, 0, 0, 1, -1, 0, 2, -2, 0, 3, -3, 0], ctildes: [0.17613772311304979, -0.24412293810904093, -0.35227544622609958, 0.48824587621808185, 0.35227544622609952, -0.4882458762180818, -0.35227544622609952, 0.4882458762180818]}
    - {mu0: 0, rank: 3, ndensity: 2, num_ms_combs: 1, mus: [0, 0, 0], ns: [1, 2, 2], ls: [0, 0, 0], ms_combs: [0, 0, 0], ctildes: [0.8350086508244523, 0.095526035192282505]}
    - {mu0: 0, rank: 3, ndensity: 2, num_ms_combs: 2, mus: [0, 0, 0], ns: [1, 2, 2], ls: [0, 1, 1], ms_combs: [0, 0, 0, 0, 1, -1], ctildes: [0.20222624397379041, 0.10689783946587068, -0.40445248794758076, -0.21379567893174131]}
    - {mu0: 0, rank: 3, ndensity: 2, num_ms_combs: 3, mus: [0, 0, 0], ns: [1, 2, 2], ls: [0, 2, 2], ms_combs: [0, 0, 0, 0, 1, -1, 0, 2, -2], ctildes: [-0.043518029587101062, -0.042336907692572097, 0.087036059174202138, 0.084673815385144208, -0.087036059174202152, -0.084673815385144235]}
    - {mu0: 0, rank: 3, ndensity: 2, num_ms_combs: 4, mus: [0, 0, 0], ns: [1, 2, 2], ls: [0, 3, 3], ms_combs: [0, 0, 0, 0, 1, -1, 0, 2, -2, 0, 3, -3], ctildes: [-0.074455278406964143, 0.15743944315171948, 0.14891055681392829, -0.31487888630343897, -0.14891055681392826, 0.31487888630343891, 0.14891055681392826, -0.31487888630343891]}
    - {mu0: 0, rank: 3, ndensity: 2, num_ms_combs: 2, mus: [0, 0, 0], ns: [1, 2, 2], ls: [1, 0, 1], ms_combs: [0, 0, 0, 1, 0, -1], ctildes: [-0.12187628493301043, -0.66653302103627288, 0.24375256986602081, 1.3330660420725455]}
    - {mu0: 0, rank: 3, ndensity: 2, num_ms_combs: 5, mus: [0, 0, 0], ns: [1, 2, 2], ls: [1, 1, 2], ms_combs: [0, 0, 0, 0, 1, -1, 1, -1, 0, 1, 0, -1, 1, 1, -2], ctildes: [0.031556626870983463, 0.041277877571899678, -0.054657681056036661, -0.071495381183138113, 0.03155662687098347, 0.041277877571899685, -0.054657681056036661, -0.071495381183138113, 0.077297633837310045, 0.10110973771622811]}
    - {mu0: 0, rank: 3, ndensity: 2, num_ms_combs: 8, mus: [0, 0, 0], ns: [1, 2, 2], ls: [1, 2, 3], ms_combs: [0, 0, 0, 0, 1, -1, 0, 2, -2, 1, -2, 1, 1, -1, 0, 1, 0, -1, 1, 1, -2, 1, 2, -3], ctildes: [0.01600463209659269, -0.014269666773255019, -0.030178623695724164, 0.026907141708375958, 0.023858296881904148, -0.021271963280845529, -0.010669754731061791, 0.0095131111821700112, 0.018480557298497426, -0.016477191905570086, -0.026135454771748147, 0.023302268262681402, 0.033740727025512569, -0.030083098970074221, -0.041323782381520111, 0.036844121179164004]}
    - {mu0: 0, rank: 3, ndensity: 2, num_ms_combs: 3, mus: [0, 0, 0], ns: [1, 2, 2], ls: [2, 0, 2], ms_combs: [0, 0, 0, 1, 0, -1, 2, 0, -2], ctildes: [-0.12553381519394174, -0.031090038757714236, 0.25106763038788349, 0.062180077515428478, -0.25106763038788354, -0.062180077515428492]}
    - {mu0: 0, rank: 3, ndensity: 2, num_ms_combs: 4, mus: [0, 0, 0], ns: [1, 2, 2], ls: [2, 1, 1], ms_combs: [0, -1, 1, 0, 0, 0, 1, -1, 0, 2, -1, -1], ctildes: [0.0013977924608031349, -0.22804729065569249, 0.0013977924608031351, -0.22804729065569251, -0.0048420951210955175, 0.78997898788817345, 0.003423878295276937, -0.55859949933061293]}
    - {mu0: 0, rank: 3, ndensity: 2, num_ms_combs: 8, mus: [0, 0, 0], ns: [1, 2, 2], ls: [2, 1, 3], ms_combs: [0, 0, 0, 0, 1, -1, 1, -1, 0, 1, 0, -1, 1, 1, -2, 2, -1, -1, 2, 0, -2, 2, 1, -3], ctildes: [0.081969331900133766, -0.021815281888288435, -0.13385535847477842, 0.035624206147524103, 0.094650031675672, -0.025190117741301785, -0.15456285449577434, 0.041135290017879522, 0.17280652472448013, -0.04599065237707356, -0.054646221266755841, 0.014543521258858954, 0.12219266546596069, -0.032520302167021932, -0.2116439048993109, 0.056326815630774241]}
    - {mu0: 0, rank: 3, ndensity: 2, num_ms_combs: 7, mus: [0, 0, 0], ns: [1, 2, 2], ls: [2, 2, 2], ms_combs: [0, -2, 2, 0, -1, 1, 0, 0, 0, 1, -2, 1, 1, -1, 0, 2, -2, 0, 2, -1, -1], ctildes: [-0.24520071608495261, -0.062377658243102062, -0.12260035804247624, -0.031188829121551014, 0.12260035804247624, 0.031188829121551014, 0.60061663897318152, 0.15279343404531301, -0.24520071608495247, -0.062377658243102027, -0.49040143216990506, -0.12475531648620408, 0.30030831948659076, 0.076396717022656505]}
    - {mu0: 0, rank: 3, ndensity: 2, num_ms_combs: 4, mus: [0, 0, 0], ns: [1, 2, 2], ls: [3, 0, 3], ms_combs: [0, 0, 0, 1, 0, -1, 2, 0, -2, 3, 0, -3], ctildes: [-0.10598490192743878, 0.065093701792522024, 0.21196980385487757, -0.13018740358504405, -0.21196980385487754, 0.13018740358504402, 0.21196980385487754, -0.13018740358504402]}
    - {mu0: 0, rank: 3, ndensity: 2, num_ms_combs: 8, mus: [0, 0, 0], ns: [1, 2, 2], ls: [3, 1, 2], ms_combs: [0, 0, 0, 0, 1, -1, 1, -1, 0, 1, 0, -1, 1, 1, -2, 2, -1, -1, 2, 0, -2, 3, -1, -2], ctildes: [-0.14268001303666761, -0.019636644319043644, -0.16475268786939878, -0.022674443767161576, 0.23299548562232505, 0.03206650589478599, 0.2690400126880339, 0.037027211620650827, 0.095120008691111799, 0.013091096212695769, -0.30079587851892486, -0.0413976811005227, -0.21269480545369679, -0.029272581031577791, 0.36839820955178071, 0.050701597615369701]}
    - {mu0: 0, rank: 3, ndensity: 2, num_ms_combs: 1, mus: [0, 0, 0], ns: [1, 2, 3], ls: [0, 0, 0], ms_combs: [0, 0, 0], ctildes: [-0.0080962245534009977, 0.23425603191987127]}
    - {mu0: 0, rank: 3, ndensity: 2, num_ms_combs: 2, mus: [0, 0, 0], ns: [1, 2, 3], ls: [0, 1, 1], ms_combs: [0, 0, 0, 0, 1, -1], ctildes: [0.0056046627176162865, -0.48089052072321814, -0.011209325435232571, 0.96178104144643606]}
    - {mu0: 0, rank: 3, ndensity: 2, num_ms_combs: 3, mus: [0, 0, 0], ns: [1, 2, 3], ls: [0, 2, 2], ms_combs: [0, 0, 0, 0, 1, -1, 0, 2, -2], ctildes: [-0.53748881098220558, 0.15472547461999711, 1.0749776219644112, -0.30945094923999422, -1.0749776219644116, 0.30945094923999433]}
    - {mu0: 0, rank: 3, ndensity: 2, num_ms_combs: 4, mus: [0, 0, 0], ns: [1, 2, 3], ls: [0, 3, 3], ms_combs: [0, 0, 0, 0, 1, -1, 0, 2, -2, 0, 3, -3], ctildes: [0.026040509327975286, 0.072995046479044007, -0.052081018655950571, -0.14599009295808801, 0.052081018655950564, 0.14599009295808801, -0.052081018655950564, -0.14599009295808801]}
    - {mu0: 0, rank: 3, ndensity: 2, num_ms_combs: 2, mus: [0, 0, 0], ns: [1, 2, 3], ls: [1, 0, 1], ms_combs: [0, 0, 0, 1, 0, -1], ctildes: [-0.34671622034877569, 0.44782736737283813, 0.69343244069755128, -0.89565473474567603]}
    - {mu0: 0, rank: 3, ndensity: 2, num_ms_combs: 2, mus: [0, 0, 0], ns: [1, 2, 3], ls: [1, 1, 0], ms_combs: [0, 0, 0, 1, -1, 0], ctildes: [-0.041236780354913738, -0.028248302072141726, 0.082473560709827462, 0.056496604144283438]}
    - {mu0: 0, rank: 3, ndensity: 2, num_ms_combs: 5, mus: [0, 0, 0], ns: [1, 2, 3], ls: [1, 1, 2], ms_combs: [0, 0, 0, 0, 1, -1, 1, -1, 0, 1, 0, -1, 1, 1, -2], ctildes: [-0.16138275232981561, 0.15730533203062677, 0.27952312650054534, -0.27246082737853755, -0.16138275232981564, 0.1573053320306268, 0.27952312650054534, -0.27246082737853755, -0.39530539649400154, 0.38531779729412258]}
    - {mu0: 0, rank: 3, ndensity: 2, num_ms_combs: 5, mus: [0, 0, 0], ns: [1, 2, 3], ls: [1, 2, 1], ms_combs: [0, 0, 0, 0, 1, -1, 1, -2, 1, 1, -1, 0, 1, 0, -1], ctildes: [-0.19357147672713224, 0.11166327025930003, 0.33527563258752957, -0.19340645742840243, -0.47415134673850307, 0.27351803514578132, 0.33527563258752957, -0.19340645742840243, -0.19357147672713221, 0.11166327025930001]}
    - {mu0: 0, rank: 3, ndensity: 2, num_ms_combs: 8, mus: [0, 0, 0], ns: [1, 2, 3], ls: [1, 2, 3], ms_combs: [0, 0, 0, 0, 1, -1, 0, 2, -2, 1, -2, 1, 1, -1, 0, 1, 0, -1, 1, 1, -2, 1, 2, -3], ctildes: [-0.067046089112704058, -0.038362184923775522, 0.12642331803634824, 0.072336429601957353, -0.099946408587676519, -0.057186968836653085, 0.044697392741802698, 0.025574789949183677, -0.077418155194662636, -0.044296835584887992, 0.10948580505019699, 0.062645185654359739, -0.14134556653517491, -0.08087458691980233, 0.1731122577078941, 0.099050735555941197]}
    - {mu0: 0, rank: 3, ndensity: 2, num_ms_combs: 8, mus: [0, 0, 0], ns: [1, 2, 3], ls: [1, 3, 2], ms_combs: [0, 0, 0, 0, 1, -1, 0, 2, -2, 1, -3, 2, 1, -2, 1, 1, -1, 0, 1, 0, -1, 1, 1, -2], ctildes: [0.05387919114730523, -0.044547186677466322, -0.10159557713361531, 0.083998980753118596, 0.080318355985386308, -0.066407025078125181, -0.1391154733470929, 0.11502034141481338, 0.11358730834204353, -0.093913715502334835, -0.087984350709852277, 0.072745251224200821, 0.062214331025231974, -0.051438660439751406, -0.035919460764870174, 0.029698124451644232]}
    - {mu0: 0, rank: 3, ndensity: 2, num_ms_combs: 3, mus: [0, 0, 0], ns: [1, 2, 3], ls: [2, 0, 2], ms_combs: [0, 0, 0, 1, 0, -1, 2, 0, -2], ctildes: [0.25189222617327028, 0.095974964342077668, -0.50378445234654068, -0.19194992868415536, 0.50378445234654079, 0.19194992868415542]}
    - {mu0: 0, rank: 3, ndensity: 2, num_ms_combs: 5, mus: [0, 0, 0], ns: [1, 2, 3], ls: [2, 1, 1], ms_combs: [0, 0, 0, 0, 1, -1, 1, -1, 0, 1, 0, -1, 2, -1, -1], ctildes: [0.15257362078927164, -0.28448282139398984, 0.15257362078927161, -0.28448282139398978, -0.26426526310176562, 0.49273870053493279, -0.26426526310176562, 0.49273870053493279, 0.37372751914261115, -0.69683775300259687]}
